Language model created by QuickLM on Sun Jun 28 06:04:33 EDT 2015
Copyright (c) 1996-2010 Carnegie Mellon University and Alexander I. Rudnicky

The model is in standard ARPA format, designed by Doug Paul while he was at MITRE.

The code that was used to produce this language model is available in Open Source.
Please visit http://www.speech.cs.cmu.edu/tools/ for more information

The (fixed) discount mass is 0.5. The backoffs are computed using the ratio method.
This model based on a corpus of 2283 sentences and 2277 words

\data\
ngram 1=2277
ngram 2=4550
ngram 3=2275

\1-grams:
-0.7782 </s> -0.3010
-0.7782 <s> -0.2218
-4.1367 A -0.2218
-4.1367 ABILITY -0.2218
-4.1367 ABLE -0.2218
-4.1367 ABOUT -0.2218
-4.1367 ABOVE -0.2218
-4.1367 ABROAD -0.2218
-4.1367 ABSOLUTELY -0.2218
-4.1367 ABUSE -0.2218
-4.1367 ACCEPT -0.2218
-4.1367 ACCEPTABLE -0.2218
-4.1367 ACCESS -0.2218
-4.1367 ACCIDENT -0.2218
-4.1367 ACCORDING -0.2218
-4.1367 ACCOUNT -0.2218
-4.1367 ACCURATE -0.2218
-4.1367 ACCUSE -0.2218
-4.1367 ACHIEVE -0.2218
-4.1367 ACQUIRE -0.2218
-4.1367 ACROSS -0.2218
-4.1367 ACT -0.2218
-4.1367 ACTION -0.2218
-4.1367 ACTIVE -0.2218
-4.1367 ACTIVITY -0.2218
-4.1367 ACTOR -0.2218
-4.1367 ACTUAL -0.2218
-4.1367 ACTUALLY -0.2218
-4.1367 AD -0.2218
-4.1367 ADAPT -0.2218
-4.1367 ADD -0.2218
-4.1367 ADDITION -0.2218
-4.1367 ADDITIONAL -0.2218
-4.1367 ADDRESS -0.2218
-4.1367 ADJUST -0.2218
-4.1367 ADMINISTRATION -0.2218
-4.1367 ADMINISTRATIVE -0.2218
-4.1367 ADMIRE -0.2218
-4.1367 ADMIT -0.2218
-4.1367 ADOPT -0.2218
-4.1367 ADULT -0.2218
-4.1367 ADVANCE -0.2218
-4.1367 ADVANCED -0.2218
-4.1367 ADVANTAGE -0.2218
-4.1367 ADVERTISING -0.2218
-4.1367 ADVICE -0.2218
-4.1367 AFFAIR -0.2218
-4.1367 AFFECT -0.2218
-4.1367 AFFORD -0.2218
-4.1367 AFRAID -0.2218
-4.1367 AFTER -0.2218
-4.1367 AFTERNOON -0.2218
-4.1367 AGAIN -0.2218
-4.1367 AGAINST -0.2218
-4.1367 AGE -0.2218
-4.1367 AGENCY -0.2218
-4.1367 AGENT -0.2218
-4.1367 AGGRESSIVE -0.2218
-4.1367 AGO -0.2218
-4.1367 AGREE -0.2218
-4.1367 AGREEMENT -0.2218
-4.1367 AHEAD -0.2218
-4.1367 AIR -0.2218
-4.1367 AIRLINE -0.2218
-4.1367 AIRPORT -0.2218
-4.1367 ALARM -0.2218
-4.1367 ALCOHOL -0.2218
-4.1367 ALEXA -0.2218
-4.1367 ALIVE -0.2218
-4.1367 ALL -0.2218
-4.1367 ALLOW -0.2218
-4.1367 ALMOST -0.2218
-4.1367 ALONE -0.2218
-4.1367 ALONG -0.2218
-4.1367 ALREADY -0.2218
-4.1367 ALSO -0.2218
-4.1367 ALTERNATIVE -0.2218
-4.1367 ALTHOUGH -0.2218
-4.1367 ALTOGETHER -0.2218
-4.1367 ALWAYS -0.2218
-4.1367 AMAZING -0.2218
-4.1367 AMBITION -0.2218
-4.1367 AMONG -0.2218
-4.1367 AMOUNT -0.2218
-4.1367 AN -0.2218
-4.1367 ANALYSIS -0.2218
-4.1367 ANALYST -0.2218
-4.1367 AND -0.2218
-4.1367 ANGER -0.2218
-4.1367 ANGLE -0.2218
-4.1367 ANGRY -0.2218
-4.1367 ANIMAL -0.2218
-4.1367 ANNOUNCE -0.2218
-4.1367 ANNUAL -0.2218
-4.1367 ANOTHER -0.2218
-4.1367 ANSWER -0.2218
-4.1367 ANTICIPATE -0.2218
-4.1367 ANXIETY -0.2218
-4.1367 ANXIOUS -0.2218
-4.1367 ANY -0.2218
-4.1367 ANYBODY -0.2218
-4.1367 ANYONE -0.2218
-4.1367 ANYTHING -0.2218
-4.1367 ANYWAY -0.2218
-4.1367 ANYWHERE -0.2218
-4.1367 APART -0.2218
-4.1367 APARTMENT -0.2218
-4.1367 APOLOGIZE -0.2218
-4.1367 APPEAL -0.2218
-4.1367 APPEAR -0.2218
-4.1367 APPEARANCE -0.2218
-4.1367 APPLE -0.2218
-4.1367 APPLICATION -0.2218
-4.1367 APPLY -0.2218
-4.1367 APPOINTMENT -0.2218
-4.1367 APPRECIATE -0.2218
-4.1367 APPROACH -0.2218
-4.1367 APPROPRIATE -0.2218
-4.1367 APPROVE -0.2218
-4.1367 ARE -0.2218
-4.1367 AREA -0.2218
-4.1367 ARGUE -0.2218
-4.1367 ARGUMENT -0.2218
-4.1367 ARIA -0.2218
-4.1367 ARISE -0.2218
-4.1367 ARM -0.2218
-4.1367 ARMY -0.2218
-4.1367 AROUND -0.2218
-4.1367 ARRIVAL -0.2218
-4.1367 ARRIVE -0.2218
-4.1367 ART -0.2218
-4.1367 ARTICLE -0.2218
-4.1367 AS -0.2218
-4.1367 ASIDE -0.2218
-4.1367 ASK -0.2218
-4.1367 ASLEEP -0.2218
-4.1367 ASPECT -0.2218
-4.1367 ASSIGNMENT -0.2218
-4.1367 ASSIST -0.2218
-4.1367 ASSISTANCE -0.2218
-4.1367 ASSISTANT -0.2218
-4.1367 ASSOCIATE -0.2218
-4.1367 ASSOCIATION -0.2218
-4.1367 ASSUME -0.2218
-4.1367 ASSUMPTION -0.2218
-4.1367 ASSURE -0.2218
-4.1367 AT -0.2218
-4.1367 ATMOSPHERE -0.2218
-4.1367 ATTACH -0.2218
-4.1367 ATTACK -0.2218
-4.1367 ATTEMPT -0.2218
-4.1367 ATTEND -0.2218
-4.1367 ATTENTION -0.2218
-4.1367 ATTITUDE -0.2218
-4.1367 ATTRACT -0.2218
-4.1367 AUDIENCE -0.2218
-4.1367 AUTHOR -0.2218
-4.1367 AUTOMATIC -0.2218
-4.1367 AUTOMATICALLY -0.2218
-4.1367 AVAILABLE -0.2218
-4.1367 AVERAGE -0.2218
-4.1367 AVOID -0.2218
-4.1367 AWARD -0.2218
-4.1367 AWARE -0.2218
-4.1367 AWARENESS -0.2218
-4.1367 AWAY -0.2218
-3.8356 BABY -0.2218
-4.1367 BACK -0.2218
-4.1367 BACKGROUND -0.2218
-4.1367 BAD -0.2218
-4.1367 BAG -0.2218
-4.1367 BAKE -0.2218
-4.1367 BALANCE -0.2218
-4.1367 BALL -0.2218
-4.1367 BAND -0.2218
-4.1367 BANK -0.2218
-4.1367 BAR -0.2218
-4.1367 BASE -0.2218
-4.1367 BASEBALL -0.2218
-4.1367 BASIC -0.2218
-4.1367 BASICALLY -0.2218
-4.1367 BASIS -0.2218
-4.1367 BASKET -0.2218
-4.1367 BAT -0.2218
-4.1367 BATH -0.2218
-4.1367 BATHROOM -0.2218
-4.1367 BATTLE -0.2218
-4.1367 BE -0.2218
-4.1367 BEACH -0.2218
-4.1367 BEAR -0.2218
-4.1367 BEAT -0.2218
-4.1367 BEAUTIFUL -0.2218
-4.1367 BECAUSE -0.2218
-4.1367 BECOME -0.2218
-4.1367 BED -0.2218
-4.1367 BEDROOM -0.2218
-4.1367 BEEN -0.2218
-4.1367 BEER -0.2218
-4.1367 BEFORE -0.2218
-4.1367 BEGIN -0.2218
-4.1367 BEGINNING -0.2218
-4.1367 BEHAVE -0.2218
-4.1367 BEHIND -0.2218
-4.1367 BEING -0.2218
-4.1367 BELIEVE -0.2218
-4.1367 BELL -0.2218
-4.1367 BELONG -0.2218
-4.1367 BELOW -0.2218
-4.1367 BELT -0.2218
-4.1367 BENCH -0.2218
-4.1367 BEND -0.2218
-4.1367 BENEFIT -0.2218
-4.1367 BEST -0.2218
-4.1367 BET -0.2218
-4.1367 BETTER -0.2218
-4.1367 BETWEEN -0.2218
-4.1367 BEYOND -0.2218
-4.1367 BICYCLE -0.2218
-4.1367 BID -0.2218
-4.1367 BIG -0.2218
-4.1367 BIKE -0.2218
-4.1367 BILL -0.2218
-4.1367 BIRD -0.2218
-4.1367 BIRTH -0.2218
-4.1367 BIRTHDAY -0.2218
-4.1367 BIT -0.2218
-4.1367 BITE -0.2218
-4.1367 BITTER -0.2218
-4.1367 BLACK -0.2218
-4.1367 BLAME -0.2218
-4.1367 BLANK -0.2218
-4.1367 BLIND -0.2218
-4.1367 BLOCK -0.2218
-4.1367 BLOOD -0.2218
-4.1367 BLOW -0.2218
-4.1367 BLUE -0.2218
-4.1367 BOARD -0.2218
-4.1367 BOAT -0.2218
-4.1367 BODY -0.2218
-4.1367 BONE -0.2218
-4.1367 BONUS -0.2218
-4.1367 BOOK -0.2218
-4.1367 BOOT -0.2218
-4.1367 BORDER -0.2218
-4.1367 BORING -0.2218
-4.1367 BORN -0.2218
-4.1367 BORROW -0.2218
-4.1367 BOSS -0.2218
-4.1367 BOTH -0.2218
-4.1367 BOTHER -0.2218
-4.1367 BOTTLE -0.2218
-4.1367 BOTTOM -0.2218
-4.1367 BOWL -0.2218
-4.1367 BOX -0.2218
-4.1367 BOY -0.2218
-4.1367 BOYFRIEND -0.2218
-4.1367 BRAIN -0.2218
-4.1367 BRANCH -0.2218
-4.1367 BRAVE -0.2218
-4.1367 BREAD -0.2218
-4.1367 BREAK -0.2218
-4.1367 BREAKFAST -0.2218
-4.1367 BREAST -0.2218
-4.1367 BREATH -0.2218
-4.1367 BRICK -0.2218
-4.1367 BRIDGE -0.2218
-4.1367 BRIEF -0.2218
-4.1367 BRIEFLY -0.2218
-4.1367 BRIGHT -0.2218
-4.1367 BRILLIANT -0.2218
-4.1367 BRING -0.2218
-4.1367 BROAD -0.2218
-4.1367 BROTHER -0.2218
-4.1367 BROWN -0.2218
-4.1367 BRUSH -0.2218
-4.1367 BUDDY -0.2218
-4.1367 BUDGET -0.2218
-4.1367 BUG -0.2218
-4.1367 BUILD -0.2218
-4.1367 BUILDING -0.2218
-4.1367 BUNCH -0.2218
-4.1367 BURN -0.2218
-4.1367 BUS -0.2218
-4.1367 BUSINESS -0.2218
-4.1367 BUSY -0.2218
-4.1367 BUT -0.2218
-4.1367 BUTTON -0.2218
-4.1367 BUY -0.2218
-4.1367 BUYER -0.2218
-4.1367 BY -0.2218
-4.1367 CABINET -0.2218
-4.1367 CABLE -0.2218
-4.1367 CAKE -0.2218
-4.1367 CALCULATE -0.2218
-3.8356 CALENDAR -0.2218
-4.1367 CALL -0.2218
-4.1367 CALM -0.2218
-4.1367 CAMERA -0.2218
-4.1367 CAMP -0.2218
-4.1367 CAMPAIGN -0.2218
-4.1367 CAN -0.2218
-4.1367 CANCEL -0.2218
-4.1367 CANCER -0.2218
-4.1367 CANDIDATE -0.2218
-4.1367 CANDLE -0.2218
-4.1367 CANDY -0.2218
-4.1367 CAP -0.2218
-4.1367 CAPABLE -0.2218
-4.1367 CAPITAL -0.2218
-4.1367 CAR -0.2218
-4.1367 CARD -0.2218
-4.1367 CARE -0.2218
-4.1367 CAREER -0.2218
-4.1367 CAREFUL -0.2218
-4.1367 CAREFULLY -0.2218
-4.1367 CARPET -0.2218
-4.1367 CARRY -0.2218
-4.1367 CASE -0.2218
-4.1367 CASH -0.2218
-4.1367 CAT -0.2218
-4.1367 CATCH -0.2218
-4.1367 CATEGORY -0.2218
-4.1367 CAUSE -0.2218
-4.1367 CELEBRATE -0.2218
-4.1367 CELEBRATION -0.2218
-4.1367 CELL -0.2218
-4.1367 CERTAIN -0.2218
-4.1367 CERTAINLY -0.2218
-4.1367 CHAI -0.2218
-4.1367 CHAIN -0.2218
-4.1367 CHAIR -0.2218
-4.1367 CHALLENGE -0.2218
-4.1367 CHAMPION -0.2218
-4.1367 CHAMPIONSHIP -0.2218
-4.1367 CHANCE -0.2218
-4.1367 CHANGE -0.2218
-4.1367 CHANNEL -0.2218
-4.1367 CHAPTER -0.2218
-4.1367 CHARACTER -0.2218
-4.1367 CHARGE -0.2218
-4.1367 CHARITY -0.2218
-4.1367 CHART -0.2218
-4.1367 CHEAP -0.2218
-4.1367 CHECK -0.2218
-4.1367 CHEEK -0.2218
-4.1367 CHEMICAL -0.2218
-4.1367 CHEMISTRY -0.2218
-4.1367 CHEST -0.2218
-4.1367 CHICKEN -0.2218
-4.1367 CHILD -0.2218
-4.1367 CHILDHOOD -0.2218
-4.1367 CHIP -0.2218
-4.1367 CHOCOLATE -0.2218
-4.1367 CHOICE -0.2218
-4.1367 CHOOSE -0.2218
-4.1367 CHURCH -0.2218
-4.1367 CIGARETTE -0.2218
-4.1367 CITY -0.2218
-4.1367 CIVIL -0.2218
-4.1367 CLAIM -0.2218
-4.1367 CLASS -0.2218
-4.1367 CLASSIC -0.2218
-4.1367 CLASSROOM -0.2218
-4.1367 CLEAN -0.2218
-4.1367 CLEAR -0.2218
-4.1367 CLEARLY -0.2218
-4.1367 CLERK -0.2218
-4.1367 CLICK -0.2218
-4.1367 CLIENT -0.2218
-4.1367 CLIMATE -0.2218
-4.1367 CLOCK -0.2218
-4.1367 CLOSE -0.2218
-4.1367 CLOSED -0.2218
-4.1367 CLOSELY -0.2218
-4.1367 CLOSET -0.2218
-4.1367 CLOTHES -0.2218
-4.1367 CLOUD -0.2218
-4.1367 CLUB -0.2218
-4.1367 CLUE -0.2218
-4.1367 COACH -0.2218
-4.1367 COAST -0.2218
-4.1367 COAT -0.2218
-4.1367 CODE -0.2218
-4.1367 COFFEE -0.2218
-4.1367 COLD -0.2218
-4.1367 COLLAR -0.2218
-4.1367 COLLECT -0.2218
-4.1367 COLLECTION -0.2218
-4.1367 COLLEGE -0.2218
-4.1367 COMBINATION -0.2218
-4.1367 COMBINE -0.2218
-4.1367 COME -0.2218
-4.1367 COMFORT -0.2218
-4.1367 COMFORTABLE -0.2218
-4.1367 COMMAND -0.2218
-4.1367 COMMENT -0.2218
-4.1367 COMMERCIAL -0.2218
-4.1367 COMMISSION -0.2218
-4.1367 COMMIT -0.2218
-4.1367 COMMITTEE -0.2218
-4.1367 COMMON -0.2218
-4.1367 COMMUNICATE -0.2218
-4.1367 COMMUNICATION -0.2218
-4.1367 COMMUNITY -0.2218
-4.1367 COMPANY -0.2218
-4.1367 COMPARE -0.2218
-4.1367 COMPARISON -0.2218
-4.1367 COMPETE -0.2218
-4.1367 COMPETITION -0.2218
-4.1367 COMPETITIVE -0.2218
-4.1367 COMPLAIN -0.2218
-4.1367 COMPLAINT -0.2218
-4.1367 COMPLETE -0.2218
-4.1367 COMPLETELY -0.2218
-4.1367 COMPLEX -0.2218
-4.1367 COMPLICATED -0.2218
-4.1367 COMPREHENSIVE -0.2218
-4.1367 COMPUTER -0.2218
-4.1367 CONCENTRATE -0.2218
-4.1367 CONCEPT -0.2218
-4.1367 CONCERN -0.2218
-4.1367 CONCERNED -0.2218
-4.1367 CONCERNING -0.2218
-4.1367 CONCERT -0.2218
-4.1367 CONCLUSION -0.2218
-4.1367 CONDITION -0.2218
-4.1367 CONFERENCE -0.2218
-4.1367 CONFIDENCE -0.2218
-4.1367 CONFIDENT -0.2218
-4.1367 CONFIRM -0.2218
-4.1367 CONFLICT -0.2218
-4.1367 CONFUSION -0.2218
-4.1367 CONNECT -0.2218
-4.1367 CONNECTION -0.2218
-4.1367 CONSCIOUS -0.2218
-4.1367 CONSEQUENCE -0.2218
-4.1367 CONSIDER -0.2218
-4.1367 CONSIDERATION -0.2218
-4.1367 CONSIST -0.2218
-4.1367 CONSISTENT -0.2218
-4.1367 CONSTANT -0.2218
-4.1367 CONSTANTLY -0.2218
-4.1367 CONSTRUCTION -0.2218
-4.1367 CONSULT -0.2218
-4.1367 CONTACT -0.2218
-4.1367 CONTAIN -0.2218
-4.1367 CONTENT -0.2218
-4.1367 CONTEST -0.2218
-4.1367 CONTEXT -0.2218
-4.1367 CONTINUE -0.2218
-4.1367 CONTRACT -0.2218
-4.1367 CONTRIBUTE -0.2218
-4.1367 CONTRIBUTION -0.2218
-4.1367 CONTROL -0.2218
-4.1367 CONVERSATION -0.2218
-4.1367 CONVERT -0.2218
-4.1367 CONVINCE -0.2218
-4.1367 COOK -0.2218
-4.1367 COOKIE -0.2218
-4.1367 COOL -0.2218
-4.1367 COPY -0.2218
-4.1367 CORNER -0.2218
-4.1367 CORRECT -0.2218
-4.1367 COST -0.2218
-4.1367 COULD -0.2218
-4.1367 COUNT -0.2218
-4.1367 COUNTER -0.2218
-4.1367 COUNTRY -0.2218
-4.1367 COUNTY -0.2218
-4.1367 COUPLE -0.2218
-4.1367 COURAGE -0.2218
-4.1367 COURSE -0.2218
-4.1367 COURT -0.2218
-4.1367 COUSIN -0.2218
-4.1367 COVER -0.2218
-4.1367 COW -0.2218
-4.1367 CRACK -0.2218
-4.1367 CRAFT -0.2218
-4.1367 CRASH -0.2218
-4.1367 CRAZY -0.2218
-4.1367 CREAM -0.2218
-4.1367 CREATE -0.2218
-4.1367 CREATIVE -0.2218
-4.1367 CREDIT -0.2218
-4.1367 CREW -0.2218
-4.1367 CRITICAL -0.2218
-4.1367 CRITICISM -0.2218
-4.1367 CRITICIZE -0.2218
-4.1367 CROSS -0.2218
-4.1367 CRY -0.2218
-4.1367 CULTURAL -0.2218
-4.1367 CULTURE -0.2218
-4.1367 CUP -0.2218
-4.1367 CURIOUS -0.2218
-4.1367 CURRENCY -0.2218
-4.1367 CURRENT -0.2218
-4.1367 CURRENTLY -0.2218
-4.1367 CURVE -0.2218
-4.1367 CUSTOMER -0.2218
-4.1367 CUT -0.2218
-4.1367 CUTE -0.2218
-4.1367 CYCLE -0.2218
-4.1367 DAD -0.2218
-4.1367 DAILY -0.2218
-4.1367 DAMAGE -0.2218
-4.1367 DANCE -0.2218
-4.1367 DANGEROUS -0.2218
-4.1367 DARE -0.2218
-4.1367 DARK -0.2218
-4.1367 DATA -0.2218
-4.1367 DATABASE -0.2218
-4.1367 DATE -0.2218
-4.1367 DAUGHTER -0.2218
-4.1367 DAY -0.2218
-4.1367 DEAD -0.2218
-4.1367 DEAL -0.2218
-4.1367 DEALER -0.2218
-4.1367 DEAR -0.2218
-4.1367 DEATH -0.2218
-4.1367 DEBATE -0.2218
-4.1367 DEBT -0.2218
-4.1367 DECENT -0.2218
-4.1367 DECIDE -0.2218
-4.1367 DECISION -0.2218
-4.1367 DEEP -0.2218
-4.1367 DEEPLY -0.2218
-4.1367 DEFINITELY -0.2218
-4.1367 DEFINITION -0.2218
-4.1367 DEGREE -0.2218
-4.1367 DELAY -0.2218
-4.1367 DELIBERATELY -0.2218
-4.1367 DELIVER -0.2218
-4.1367 DELIVERY -0.2218
-4.1367 DEMAND -0.2218
-4.1367 DEPARTMENT -0.2218
-4.1367 DEPARTURE -0.2218
-4.1367 DEPEND -0.2218
-4.1367 DEPENDENT -0.2218
-4.1367 DEPOSIT -0.2218
-4.1367 DEPRESSION -0.2218
-4.1367 DEPTH -0.2218
-4.1367 DESCRIBE -0.2218
-4.1367 DESCRIPTION -0.2218
-4.1367 DESERVE -0.2218
-4.1367 DESIGN -0.2218
-4.1367 DESIGNER -0.2218
-4.1367 DESIRE -0.2218
-4.1367 DESK -0.2218
-4.1367 DESPERATE -0.2218
-4.1367 DESPITE -0.2218
-4.1367 DESTROY -0.2218
-4.1367 DETAIL -0.2218
-4.1367 DETAILED -0.2218
-4.1367 DETERMINE -0.2218
-4.1367 DEVELOP -0.2218
-4.1367 DEVELOPMENT -0.2218
-4.1367 DEVICE -0.2218
-4.1367 DEVIL -0.2218
-4.1367 DIAMOND -0.2218
-4.1367 DIE -0.2218
-4.1367 DIET -0.2218
-4.1367 DIFFER -0.2218
-4.1367 DIFFERENCE -0.2218
-4.1367 DIFFERENT -0.2218
-4.1367 DIFFICULT -0.2218
-4.1367 DIFFICULTY -0.2218
-4.1367 DIG -0.2218
-4.1367 DIMENSION -0.2218
-4.1367 DINNER -0.2218
-4.1367 DIRECT -0.2218
-4.1367 DIRECTION -0.2218
-4.1367 DIRECTLY -0.2218
-4.1367 DIRECTOR -0.2218
-4.1367 DIRT -0.2218
-4.1367 DIRTY -0.2218
-4.1367 DISAGREE -0.2218
-4.1367 DISAPPOINTED -0.2218
-4.1367 DISASTER -0.2218
-4.1367 DISCIPLINE -0.2218
-4.1367 DISCOUNT -0.2218
-4.1367 DISCOVER -0.2218
-4.1367 DISCUSS -0.2218
-4.1367 DISCUSSION -0.2218
-4.1367 DISEASE -0.2218
-4.1367 DISH -0.2218
-4.1367 DISK -0.2218
-4.1367 DISPLAY -0.2218
-4.1367 DISTANCE -0.2218
-4.1367 DISTINCT -0.2218
-4.1367 DISTRIBUTE -0.2218
-4.1367 DISTRIBUTION -0.2218
-4.1367 DISTRICT -0.2218
-4.1367 DIVIDE -0.2218
-4.1367 DO -0.2218
-4.1367 DOCTOR -0.2218
-4.1367 DOCUMENT -0.2218
-4.1367 DOES -0.2218
-4.1367 DOG -0.2218
-4.1367 DOOR -0.2218
-4.1367 DOT -0.2218
-4.1367 DOUBLE -0.2218
-4.1367 DOUBT -0.2218
-4.1367 DOWN -0.2218
-4.1367 DOWNTOWN -0.2218
-4.1367 DRAFT -0.2218
-4.1367 DRAG -0.2218
-4.1367 DRAMA -0.2218
-4.1367 DRAMATIC -0.2218
-4.1367 DRAW -0.2218
-4.1367 DRAWER -0.2218
-4.1367 DRAWING -0.2218
-4.1367 DREAM -0.2218
-4.1367 DRESS -0.2218
-4.1367 DRINK -0.2218
-4.1367 DRIVE -0.2218
-4.1367 DRIVER -0.2218
-4.1367 DROP -0.2218
-4.1367 DRUNK -0.2218
-4.1367 DRY -0.2218
-4.1367 DUE -0.2218
-4.1367 DUMP -0.2218
-4.1367 DURING -0.2218
-4.1367 DUST -0.2218
-4.1367 DUTY -0.2218
-4.1367 EACH -0.2218
-4.1367 EAR -0.2218
-4.1367 EARLY -0.2218
-4.1367 EARN -0.2218
-4.1367 EARTH -0.2218
-4.1367 EASE -0.2218
-4.1367 EASILY -0.2218
-4.1367 EAST -0.2218
-4.1367 EASTERN -0.2218
-4.1367 EASY -0.2218
-4.1367 EAT -0.2218
-4.1367 ECONOMICS -0.2218
-4.1367 ECONOMY -0.2218
-4.1367 EDGE -0.2218
-4.1367 EDITOR -0.2218
-4.1367 EDUCATION -0.2218
-4.1367 EDUCATIONAL -0.2218
-4.1367 EFFECT -0.2218
-4.1367 EFFECTIVE -0.2218
-4.1367 EFFECTIVELY -0.2218
-4.1367 EFFICIENCY -0.2218
-4.1367 EFFICIENT -0.2218
-4.1367 EFFORT -0.2218
-4.1367 EGG -0.2218
-4.1367 EITHER -0.2218
-4.1367 ELECTION -0.2218
-4.1367 ELECTRICAL -0.2218
-4.1367 ELECTRONIC -0.2218
-4.1367 ELEVATOR -0.2218
-4.1367 ELSE -0.2218
-4.1367 ELSEWHERE -0.2218
-4.1367 EMBARRASSED -0.2218
-4.1367 EMERGENCY -0.2218
-4.1367 EMOTION -0.2218
-4.1367 EMOTIONAL -0.2218
-4.1367 EMPHASIS -0.2218
-4.1367 EMPHASIZE -0.2218
-4.1367 EMPLOY -0.2218
-4.1367 EMPLOYEE -0.2218
-4.1367 EMPLOYER -0.2218
-4.1367 EMPLOYMENT -0.2218
-4.1367 EMPTY -0.2218
-4.1367 ENABLE -0.2218
-4.1367 ENCOURAGE -0.2218
-4.1367 ENCOURAGING -0.2218
-4.1367 END -0.2218
-4.1367 ENERGY -0.2218
-4.1367 ENGAGE -0.2218
-4.1367 ENGINE -0.2218
-4.1367 ENGINEER -0.2218
-4.1367 ENGINEERING -0.2218
-4.1367 ENHANCE -0.2218
-4.1367 ENJOY -0.2218
-4.1367 ENOUGH -0.2218
-4.1367 ENSURE -0.2218
-4.1367 ENTER -0.2218
-4.1367 ENTERTAINMENT -0.2218
-4.1367 ENTHUSIASM -0.2218
-4.1367 ENTIRE -0.2218
-4.1367 ENTRANCE -0.2218
-4.1367 ENTRY -0.2218
-4.1367 ENVIRONMENT -0.2218
-4.1367 ENVIRONMENTAL -0.2218
-4.1367 EQUAL -0.2218
-4.1367 EQUALLY -0.2218
-4.1367 EQUIPMENT -0.2218
-4.1367 EQUIVALENT -0.2218
-4.1367 ERROR -0.2218
-4.1367 ESCAPE -0.2218
-4.1367 ESPECIALLY -0.2218
-4.1367 ESSAY -0.2218
-4.1367 ESSENTIALLY -0.2218
-4.1367 ESTABLISH -0.2218
-4.1367 ESTABLISHMENT -0.2218
-4.1367 ESTATE -0.2218
-4.1367 ESTIMATE -0.2218
-4.1367 EVEN -0.2218
-4.1367 EVENING -0.2218
-4.1367 EVENT -0.2218
-4.1367 EVENTUALLY -0.2218
-4.1367 EVER -0.2218
-4.1367 EVERY -0.2218
-4.1367 EVERYBODY -0.2218
-4.1367 EVERYONE -0.2218
-4.1367 EVERYTHING -0.2218
-4.1367 EVERYWHERE -0.2218
-4.1367 EVIDENCE -0.2218
-4.1367 EXACT -0.2218
-4.1367 EXACTLY -0.2218
-4.1367 EXAM -0.2218
-4.1367 EXAMINATION -0.2218
-4.1367 EXAMINE -0.2218
-4.1367 EXAMPLE -0.2218
-4.1367 EXCELLENT -0.2218
-4.1367 EXCEPT -0.2218
-4.1367 EXCHANGE -0.2218
-4.1367 EXCITEMENT -0.2218
-4.1367 EXCITING -0.2218
-4.1367 EXCUSE -0.2218
-4.1367 EXERCISE -0.2218
-4.1367 EXIST -0.2218
-4.1367 EXISTING -0.2218
-4.1367 EXIT -0.2218
-4.1367 EXPAND -0.2218
-4.1367 EXPECT -0.2218
-4.1367 EXPENSIVE -0.2218
-4.1367 EXPERIENCE -0.2218
-4.1367 EXPERIENCED -0.2218
-4.1367 EXPERT -0.2218
-4.1367 EXPLAIN -0.2218
-4.1367 EXPLANATION -0.2218
-4.1367 EXPLORE -0.2218
-4.1367 EXPOSE -0.2218
-4.1367 EXPRESS -0.2218
-4.1367 EXPRESSION -0.2218
-4.1367 EXTEND -0.2218
-4.1367 EXTENSION -0.2218
-4.1367 EXTENT -0.2218
-4.1367 EXTERNAL -0.2218
-4.1367 EXTRA -0.2218
-4.1367 EXTREME -0.2218
-4.1367 EXTREMELY -0.2218
-4.1367 EYE -0.2218
-4.1367 FACE -0.2218
-4.1367 FACT -0.2218
-4.1367 FACTOR -0.2218
-4.1367 FAIL -0.2218
-4.1367 FAILURE -0.2218
-4.1367 FAIR -0.2218
-4.1367 FAIRLY -0.2218
-4.1367 FAKE -0.2218
-4.1367 FALL -0.2218
-4.1367 FALSE -0.2218
-4.1367 FAMILIAR -0.2218
-4.1367 FAMILY -0.2218
-4.1367 FAMOUS -0.2218
-4.1367 FAN -0.2218
-4.1367 FAR -0.2218
-4.1367 FARM -0.2218
-4.1367 FARMER -0.2218
-4.1367 FAST -0.2218
-4.1367 FAT -0.2218
-4.1367 FATHER -0.2218
-4.1367 FAULT -0.2218
-4.1367 FEAR -0.2218
-4.1367 FEATURE -0.2218
-4.1367 FEDERAL -0.2218
-4.1367 FEE -0.2218
-4.1367 FEED -0.2218
-4.1367 FEEDBACK -0.2218
-4.1367 FEEL -0.2218
-4.1367 FEELING -0.2218
-4.1367 FEMALE -0.2218
-4.1367 FEW -0.2218
-4.1367 FIELD -0.2218
-4.1367 FIGHT -0.2218
-4.1367 FIGURE -0.2218
-4.1367 FILE -0.2218
-4.1367 FILL -0.2218
-4.1367 FILM -0.2218
-4.1367 FINAL -0.2218
-4.1367 FINALLY -0.2218
-4.1367 FINANCE -0.2218
-4.1367 FINANCIAL -0.2218
-4.1367 FIND -0.2218
-4.1367 FINDING -0.2218
-4.1367 FINE -0.2218
-4.1367 FINGER -0.2218
-4.1367 FINISH -0.2218
-4.1367 FIRE -0.2218
-4.1367 FIRM -0.2218
-4.1367 FIRST -0.2218
-4.1367 FISH -0.2218
-4.1367 FISHING -0.2218
-4.1367 FIT -0.2218
-4.1367 FIX -0.2218
-4.1367 FIXED -0.2218
-4.1367 FLAT -0.2218
-4.1367 FLIGHT -0.2218
-4.1367 FLOOR -0.2218
-4.1367 FLOW -0.2218
-4.1367 FLOWER -0.2218
-4.1367 FLOWERS -0.2218
-4.1367 FLY -0.2218
-4.1367 FOCUS -0.2218
-4.1367 FOLD -0.2218
-4.1367 FOLLOW -0.2218
-4.1367 FOLLOWING -0.2218
-4.1367 FOOD -0.2218
-4.1367 FOOT -0.2218
-4.1367 FOOTBALL -0.2218
-4.1367 FOR -0.2218
-4.1367 FORCE -0.2218
-4.1367 FOREIGN -0.2218
-4.1367 FOREVER -0.2218
-4.1367 FORGET -0.2218
-4.1367 FORM -0.2218
-4.1367 FORMAL -0.2218
-4.1367 FORMER -0.2218
-4.1367 FORTH -0.2218
-4.1367 FORTUNE -0.2218
-4.1367 FORWARD -0.2218
-4.1367 FOUNDATION -0.2218
-4.1367 FRAME -0.2218
-4.1367 FREE -0.2218
-4.1367 FREEDOM -0.2218
-4.1367 FREQUENT -0.2218
-4.1367 FREQUENTLY -0.2218
-4.1367 FRESH -0.2218
-4.1367 FRIEND -0.2218
-4.1367 FRIENDLY -0.2218
-4.1367 FRIENDSHIP -0.2218
-4.1367 FROM -0.2218
-4.1367 FRONT -0.2218
-4.1367 FRUIT -0.2218
-4.1367 FUEL -0.2218
-4.1367 FULL -0.2218
-4.1367 FULLY -0.2218
-4.1367 FUN -0.2218
-4.1367 FUNCTION -0.2218
-4.1367 FUNERAL -0.2218
-4.1367 FUNNY -0.2218
-4.1367 FUTURE -0.2218
-4.1367 GAIN -0.2218
-4.1367 GAME -0.2218
-4.1367 GAP -0.2218
-4.1367 GARAGE -0.2218
-4.1367 GARBAGE -0.2218
-4.1367 GARDEN -0.2218
-4.1367 GAS -0.2218
-4.1367 GATE -0.2218
-4.1367 GATHER -0.2218
-4.1367 GEAR -0.2218
-4.1367 GENE -0.2218
-4.1367 GENERAL -0.2218
-4.1367 GENERALLY -0.2218
-4.1367 GENERATE -0.2218
-4.1367 GENTLY -0.2218
-4.1367 GET -0.2218
-4.1367 GIFT -0.2218
-4.1367 GIRL -0.2218
-4.1367 GIRLFRIEND -0.2218
-4.1367 GIVE -0.2218
-4.1367 GLAD -0.2218
-4.1367 GLASS -0.2218
-4.1367 GLOBAL -0.2218
-4.1367 GLOVE -0.2218
-4.1367 GO -0.2218
-4.1367 GOAL -0.2218
-4.1367 GOD -0.2218
-4.1367 GOLD -0.2218
-4.1367 GOLF -0.2218
-4.1367 GOOD -0.2218
-4.1367 GOVERNMENT -0.2218
-4.1367 GRAB -0.2218
-4.1367 GRADE -0.2218
-4.1367 GRAND -0.2218
-4.1367 GRANDFATHER -0.2218
-4.1367 GRANDMOTHER -0.2218
-4.1367 GRASS -0.2218
-4.1367 GREAT -0.2218
-4.1367 GREATLY -0.2218
-4.1367 GREEN -0.2218
-4.1367 GROCERY -0.2218
-4.1367 GROSS -0.2218
-4.1367 GROUND -0.2218
-4.1367 GROUP -0.2218
-4.1367 GROW -0.2218
-4.1367 GROWTH -0.2218
-4.1367 GUARANTEE -0.2218
-4.1367 GUARD -0.2218
-4.1367 GUESS -0.2218
-4.1367 GUEST -0.2218
-4.1367 GUIDANCE -0.2218
-4.1367 GUIDE -0.2218
-4.1367 GUILTY -0.2218
-4.1367 GUITAR -0.2218
-4.1367 GUY -0.2218
-4.1367 HABIT -0.2218
-4.1367 HAD -0.2218
-4.1367 HAIR -0.2218
-4.1367 HALF -0.2218
-4.1367 HALL -0.2218
-4.1367 HAND -0.2218
-4.1367 HANDLE -0.2218
-4.1367 HANG -0.2218
-4.1367 HAPPEN -0.2218
-4.1367 HAPPY -0.2218
-4.1367 HARD -0.2218
-4.1367 HARDLY -0.2218
-4.1367 HARM -0.2218
-4.1367 HAS -0.2218
-4.1367 HAT -0.2218
-4.1367 HATE -0.2218
-4.1367 HAVE -0.2218
-4.1367 HE -0.2218
-4.1367 HEAD -0.2218
-4.1367 HEALTH -0.2218
-4.1367 HEALTHY -0.2218
-4.1367 HEAR -0.2218
-4.1367 HEARING -0.2218
-4.1367 HEART -0.2218
-4.1367 HEAT -0.2218
-4.1367 HEAVY -0.2218
-4.1367 HEIGHT -0.2218
-4.1367 HELL -0.2218
-4.1367 HELLO -0.2218
-4.1367 HELP -0.2218
-4.1367 HELPFUL -0.2218
-4.1367 HER -0.2218
-4.1367 HERE -0.2218
-4.1367 HERSELF -0.2218
-4.1367 HESITATE -0.2218
-4.1367 HI -0.2218
-4.1367 HIDE -0.2218
-4.1367 HIGH -0.2218
-4.1367 HIGHLIGHT -0.2218
-4.1367 HIGHLY -0.2218
-4.1367 HIGHWAY -0.2218
-4.1367 HIM -0.2218
-4.1367 HIMSELF -0.2218
-4.1367 HIRE -0.2218
-4.1367 HIS -0.2218
-4.1367 HISTORIAN -0.2218
-4.1367 HISTORICAL -0.2218
-4.1367 HISTORY -0.2218
-4.1367 HIT -0.2218
-4.1367 HOLD -0.2218
-4.1367 HOLE -0.2218
-4.1367 HOLIDAY -0.2218
-3.8356 HOME -0.2218
-4.1367 HOMEWORK -0.2218
-4.1367 HONEST -0.2218
-4.1367 HONESTLY -0.2218
-4.1367 HONEY -0.2218
-4.1367 HOOK -0.2218
-4.1367 HOPE -0.2218
-4.1367 HOPEFULLY -0.2218
-4.1367 HORROR -0.2218
-4.1367 HORSE -0.2218
-4.1367 HOSPITAL -0.2218
-4.1367 HOST -0.2218
-4.1367 HOT -0.2218
-4.1367 HOTEL -0.2218
-4.1367 HOUR -0.2218
-4.1367 HOUSE -0.2218
-4.1367 HOUSING -0.2218
-4.1367 HOW -0.2218
-4.1367 HOWEVER -0.2218
-4.1367 HUGE -0.2218
-4.1367 HUMAN -0.2218
-4.1367 HUNGRY -0.2218
-4.1367 HUNT -0.2218
-4.1367 HURRY -0.2218
-4.1367 HURT -0.2218
-4.1367 HUSBAND -0.2218
-4.1367 I -0.2218
-4.1367 ICE -0.2218
-4.1367 IDEA -0.2218
-4.1367 IDEAL -0.2218
-4.1367 IDENTIFY -0.2218
-4.1367 IF -0.2218
-4.1367 IGNORE -0.2218
-4.1367 ILL -0.2218
-4.1367 ILLEGAL -0.2218
-4.1367 ILLUSTRATE -0.2218
-4.1367 IMAGE -0.2218
-4.1367 IMAGINATION -0.2218
-4.1367 IMAGINE -0.2218
-4.1367 IMMEDIATE -0.2218
-4.1367 IMMEDIATELY -0.2218
-4.1367 IMPACT -0.2218
-4.1367 IMPLEMENT -0.2218
-4.1367 IMPLY -0.2218
-4.1367 IMPORTANCE -0.2218
-4.1367 IMPORTANT -0.2218
-4.1367 IMPOSSIBLE -0.2218
-4.1367 IMPRESS -0.2218
-4.1367 IMPRESSION -0.2218
-4.1367 IMPRESSIVE -0.2218
-4.1367 IMPROVE -0.2218
-4.1367 IMPROVEMENT -0.2218
-4.1367 IN -0.2218
-4.1367 INCIDENT -0.2218
-4.1367 INCLUDE -0.2218
-4.1367 INCLUDING -0.2218
-4.1367 INCOME -0.2218
-4.1367 INCORPORATE -0.2218
-4.1367 INCREASE -0.2218
-4.1367 INDEPENDENCE -0.2218
-4.1367 INDEPENDENT -0.2218
-4.1367 INDICATE -0.2218
-4.1367 INDICATION -0.2218
-4.1367 INDIVIDUAL -0.2218
-4.1367 INDUSTRY -0.2218
-4.1367 INEVITABLE -0.2218
-4.1367 INFLATION -0.2218
-4.1367 INFLUENCE -0.2218
-4.1367 INFORM -0.2218
-4.1367 INFORMAL -0.2218
-4.1367 INFORMATION -0.2218
-4.1367 INITIAL -0.2218
-4.1367 INITIALLY -0.2218
-4.1367 INITIATIVE -0.2218
-4.1367 INJURY -0.2218
-4.1367 INNER -0.2218
-4.1367 INSECT -0.2218
-4.1367 INSIDE -0.2218
-4.1367 INSIST -0.2218
-4.1367 INSPECTION -0.2218
-4.1367 INSPECTOR -0.2218
-4.1367 INSTALL -0.2218
-4.1367 INSTANCE -0.2218
-4.1367 INSTEAD -0.2218
-4.1367 INSTRUCTION -0.2218
-4.1367 INSURANCE -0.2218
-4.1367 INTELLIGENT -0.2218
-4.1367 INTEND -0.2218
-4.1367 INTENTION -0.2218
-4.1367 INTERACTION -0.2218
-4.1367 INTEREST -0.2218
-4.1367 INTERESTED -0.2218
-4.1367 INTERESTING -0.2218
-4.1367 INTERNAL -0.2218
-4.1367 INTERNATIONAL -0.2218
-4.1367 INTERNET -0.2218
-4.1367 INTERVIEW -0.2218
-4.1367 INTO -0.2218
-4.1367 INTRODUCE -0.2218
-4.1367 INTRODUCTION -0.2218
-4.1367 INVEST -0.2218
-4.1367 INVESTIGATE -0.2218
-4.1367 INVESTMENT -0.2218
-4.1367 INVITE -0.2218
-4.1367 INVOLVE -0.2218
-4.1367 INVOLVED -0.2218
-4.1367 IRON -0.2218
-4.1367 IS -0.2218
-4.1367 ISLAND -0.2218
-4.1367 ISSUE -0.2218
-4.1367 IT -0.2218
-4.1367 ITEM -0.2218
-4.1367 ITS -0.2218
-4.1367 ITSELF -0.2218
-4.1367 JACKET -0.2218
-4.1367 JOB -0.2218
-4.1367 JOIN -0.2218
-4.1367 JOINT -0.2218
-4.1367 JOKE -0.2218
-4.1367 JUDGE -0.2218
-4.1367 JUDGMENT -0.2218
-4.1367 JUICE -0.2218
-4.1367 JUMP -0.2218
-4.1367 JUNIOR -0.2218
-4.1367 JURY -0.2218
-4.1367 JUST -0.2218
-4.1367 JUSTIFY -0.2218
-4.1367 KEEP -0.2218
-4.1367 KEY -0.2218
-4.1367 KICK -0.2218
-4.1367 KID -0.2218
-4.1367 KILL -0.2218
-4.1367 KIND -0.2218
-4.1367 KING -0.2218
-4.1367 KISS -0.2218
-3.8356 KITCHEN -0.2218
-4.1367 KNEE -0.2218
-4.1367 KNIFE -0.2218
-4.1367 KNOW -0.2218
-4.1367 KNOWLEDGE -0.2218
-4.1367 KNOWN -0.2218
-4.1367 LAB -0.2218
-4.1367 LACK -0.2218
-4.1367 LADDER -0.2218
-4.1367 LADY -0.2218
-4.1367 LAKE -0.2218
-4.1367 LAND -0.2218
-4.1367 LANDSCAPE -0.2218
-4.1367 LANGUAGE -0.2218
-4.1367 LARGE -0.2218
-4.1367 LAST -0.2218
-4.1367 LATE -0.2218
-4.1367 LATER -0.2218
-4.1367 LATTER -0.2218
-4.1367 LAUGH -0.2218
-4.1367 LAW -0.2218
-4.1367 LAWYER -0.2218
-4.1367 LAY -0.2218
-4.1367 LAYER -0.2218
-4.1367 LEAD -0.2218
-4.1367 LEADER -0.2218
-4.1367 LEADERSHIP -0.2218
-4.1367 LEADING -0.2218
-4.1367 LEAGUE -0.2218
-4.1367 LEARN -0.2218
-4.1367 LEAST -0.2218
-4.1367 LEATHER -0.2218
-4.1367 LEAVE -0.2218
-4.1367 LECTURE -0.2218
-4.1367 LEFT -0.2218
-4.1367 LEG -0.2218
-4.1367 LEGAL -0.2218
-4.1367 LENGTH -0.2218
-4.1367 LESS -0.2218
-4.1367 LESSON -0.2218
-4.1367 LET -0.2218
-4.1367 LETTER -0.2218
-4.1367 LEVEL -0.2218
-4.1367 LIBRARY -0.2218
-4.1367 LIE -0.2218
-4.1367 LIFE -0.2218
-4.1367 LIFT -0.2218
-4.1367 LIGHT -0.2218
-4.1367 LIKE -0.2218
-4.1367 LIKELY -0.2218
-4.1367 LIMIT -0.2218
-4.1367 LIMITED -0.2218
-4.1367 LINE -0.2218
-4.1367 LINK -0.2218
-4.1367 LIP -0.2218
-4.1367 LIST -0.2218
-4.1367 LISTEN -0.2218
-4.1367 LITERALLY -0.2218
-4.1367 LITERATURE -0.2218
-4.1367 LITTLE -0.2218
-4.1367 LIVE -0.2218
-4.1367 LIVING -0.2218
-4.1367 LOAD -0.2218
-4.1367 LOAN -0.2218
-4.1367 LOCAL -0.2218
-4.1367 LOCATION -0.2218
-4.1367 LOCK -0.2218
-4.1367 LOG -0.2218
-4.1367 LOGICAL -0.2218
-4.1367 LONELY -0.2218
-4.1367 LONG -0.2218
-4.1367 LOOK -0.2218
-4.1367 LOOSE -0.2218
-4.1367 LOSE -0.2218
-4.1367 LOSS -0.2218
-4.1367 LOST -0.2218
-4.1367 LOT -0.2218
-4.1367 LOUD -0.2218
-4.1367 LOVE -0.2218
-4.1367 LOW -0.2218
-4.1367 LOWER -0.2218
-4.1367 LUCK -0.2218
-4.1367 LUCKY -0.2218
-4.1367 LUNCH -0.2218
-4.1367 MACHINE -0.2218
-4.1367 MAD -0.2218
-4.1367 MAGAZINE -0.2218
-4.1367 MAIL -0.2218
-4.1367 MAIN -0.2218
-4.1367 MAINLY -0.2218
-4.1367 MAINTAIN -0.2218
-4.1367 MAINTENANCE -0.2218
-4.1367 MAJOR -0.2218
-4.1367 MAKE -0.2218
-4.1367 MALE -0.2218
-4.1367 MALL -0.2218
-4.1367 MAN -0.2218
-4.1367 MANAGE -0.2218
-4.1367 MANAGEMENT -0.2218
-4.1367 MANAGER -0.2218
-4.1367 MANNER -0.2218
-4.1367 MANUFACTURER -0.2218
-4.1367 MANUFACTURING -0.2218
-4.1367 MANY -0.2218
-4.1367 MAP -0.2218
-4.1367 MARCH -0.2218
-4.1367 MARK -0.2218
-4.1367 MARKANDEY -0.2218
-4.1367 MARKET -0.2218
-4.1367 MARKETING -0.2218
-4.1367 MARRIAGE -0.2218
-4.1367 MARRIED -0.2218
-4.1367 MARRY -0.2218
-4.1367 MASSIVE -0.2218
-4.1367 MASTER -0.2218
-4.1367 MATCH -0.2218
-4.1367 MATE -0.2218
-4.1367 MATERIAL -0.2218
-4.1367 MATH -0.2218
-4.1367 MATTER -0.2218
-4.1367 MAXIMUM -0.2218
-4.1367 MAY -0.2218
-4.1367 MAYBE -0.2218
-4.1367 ME -0.2218
-4.1367 MEAL -0.2218
-4.1367 MEAN -0.2218
-4.1367 MEANING -0.2218
-4.1367 MEASUREMENT -0.2218
-4.1367 MEAT -0.2218
-4.1367 MEDIA -0.2218
-4.1367 MEDICAL -0.2218
-4.1367 MEDICINE -0.2218
-4.1367 MEDIUM -0.2218
-4.1367 MEET -0.2218
-4.1367 MEETING -0.2218
-4.1367 MEMBER -0.2218
-4.1367 MEMBERSHIP -0.2218
-4.1367 MEMORY -0.2218
-4.1367 MENTAL -0.2218
-4.1367 MENTION -0.2218
-4.1367 MENU -0.2218
-4.1367 MERELY -0.2218
-4.1367 MESS -0.2218
-4.1367 MESSAGE -0.2218
-4.1367 METAL -0.2218
-4.1367 METHOD -0.2218
-4.1367 MIDDLE -0.2218
-4.1367 MIDNIGHT -0.2218
-4.1367 MIGHT -0.2218
-4.1367 MILK -0.2218
-4.1367 MIND -0.2218
-4.1367 MINE -0.2218
-4.1367 MINIMUM -0.2218
-4.1367 MINOR -0.2218
-4.1367 MINUTE -0.2218
-4.1367 MIRROR -0.2218
-4.1367 MISS -0.2218
-4.1367 MISSION -0.2218
-4.1367 MISTAKE -0.2218
-4.1367 MIX -0.2218
-4.1367 MIXED -0.2218
-4.1367 MIXTURE -0.2218
-4.1367 MOBILE -0.2218
-4.1367 MODE -0.2218
-4.1367 MODEL -0.2218
-4.1367 MOM -0.2218
-4.1367 MOMENT -0.2218
-4.1367 MONEY -0.2218
-4.1367 MONITOR -0.2218
-4.1367 MONTH -0.2218
-4.1367 MOOD -0.2218
-4.1367 MORE -0.2218
-4.1367 MOREOVER -0.2218
-4.1367 MORNING -0.2218
-4.1367 MORTGAGE -0.2218
-4.1367 MOST -0.2218
-4.1367 MOSTLY -0.2218
-4.1367 MOTHER -0.2218
-4.1367 MOTOR -0.2218
-4.1367 MOUNTAIN -0.2218
-4.1367 MOUSE -0.2218
-4.1367 MOUTH -0.2218
-4.1367 MOVE -0.2218
-4.1367 MOVIE -0.2218
-4.1367 MUCH -0.2218
-4.1367 MUD -0.2218
-4.1367 MUSCLE -0.2218
-4.1367 MUSIC -0.2218
-4.1367 MUST -0.2218
-4.1367 MY -0.2218
-4.1367 MYSELF -0.2218
-4.1367 NAIL -0.2218
-4.1367 NAME -0.2218
-4.1367 NARROW -0.2218
-4.1367 NASTY -0.2218
-4.1367 NATION -0.2218
-4.1367 NATIONAL -0.2218
-4.1367 NATIVE -0.2218
-4.1367 NATURAL -0.2218
-4.1367 NATURALLY -0.2218
-4.1367 NATURE -0.2218
-4.1367 NEAR -0.2218
-4.1367 NEARBY -0.2218
-4.1367 NEARLY -0.2218
-4.1367 NEAT -0.2218
-4.1367 NECESSARILY -0.2218
-4.1367 NECESSARY -0.2218
-4.1367 NECK -0.2218
-4.1367 NEED -0.2218
-4.1367 NEGATIVE -0.2218
-4.1367 NEGOTIATE -0.2218
-4.1367 NEGOTIATION -0.2218
-4.1367 NEITHER -0.2218
-4.1367 NERVE -0.2218
-4.1367 NERVOUS -0.2218
-4.1367 NET -0.2218
-4.1367 NETWORK -0.2218
-4.1367 NEVER -0.2218
-4.1367 NEW -0.2218
-3.8356 NEWS -0.2218
-4.1367 NEWSPAPER -0.2218
-4.1367 NEXT -0.2218
-4.1367 NICE -0.2218
-4.1367 NIGHT -0.2218
-4.1367 NO -0.2218
-4.1367 NOBODY -0.2218
-4.1367 NOISE -0.2218
-4.1367 NONE -0.2218
-4.1367 NOR -0.2218
-4.1367 NORMAL -0.2218
-4.1367 NORMALLY -0.2218
-4.1367 NORTH -0.2218
-4.1367 NOSE -0.2218
-4.1367 NOT -0.2218
-3.8356 NOTE -0.2218
-4.1367 NOTHING -0.2218
-4.1367 NOTICE -0.2218
-4.1367 NOVEL -0.2218
-4.1367 NOW -0.2218
-4.1367 NOWHERE -0.2218
-4.1367 NUMBER -0.2218
-4.1367 NUMEROUS -0.2218
-4.1367 NURSE -0.2218
-4.1367 OBJECT -0.2218
-4.1367 OBJECTIVE -0.2218
-4.1367 OBLIGATION -0.2218
-4.1367 OBTAIN -0.2218
-4.1367 OBVIOUS -0.2218
-4.1367 OBVIOUSLY -0.2218
-4.1367 OCCASION -0.2218
-4.1367 OCCASIONALLY -0.2218
-4.1367 OCCUR -0.2218
-4.1367 ODD -0.2218
-4.1367 OF -0.2218
-4.1367 OFF -0.2218
-4.1367 OFFER -0.2218
-4.1367 OFFICE -0.2218
-4.1367 OFFICER -0.2218
-4.1367 OFFICIAL -0.2218
-4.1367 OFTEN -0.2218
-4.1367 OIL -0.2218
-4.1367 OK -0.2218
-4.1367 OLD -0.2218
-4.1367 ON -0.2218
-4.1367 ONCE -0.2218
-4.1367 ONE -0.2218
-4.1367 ONLY -0.2218
-4.1367 OPEN -0.2218
-4.1367 OPENING -0.2218
-4.1367 OPERATE -0.2218
-4.1367 OPERATION -0.2218
-4.1367 OPINION -0.2218
-4.1367 OPPORTUNITY -0.2218
-4.1367 OPPOSITE -0.2218
-4.1367 OPTION -0.2218
-4.1367 OR -0.2218
-4.1367 ORANGE -0.2218
-4.1367 ORDER -0.2218
-4.1367 ORDINARY -0.2218
-4.1367 ORGANIZATION -0.2218
-4.1367 ORGANIZE -0.2218
-4.1367 ORGANIZED -0.2218
-4.1367 ORIGINAL -0.2218
-4.1367 ORIGINALLY -0.2218
-4.1367 OTHER -0.2218
-4.1367 OTHERWISE -0.2218
-4.1367 OUGHT -0.2218
-4.1367 OUR -0.2218
-4.1367 OURSELVES -0.2218
-4.1367 OUT -0.2218
-4.1367 OUTCOME -0.2218
-4.1367 OUTSIDE -0.2218
-4.1367 OVEN -0.2218
-4.1367 OVER -0.2218
-4.1367 OVERALL -0.2218
-4.1367 OVERCOME -0.2218
-4.1367 OWE -0.2218
-4.1367 OWN -0.2218
-4.1367 OWNER -0.2218
-4.1367 PACE -0.2218
-4.1367 PACK -0.2218
-4.1367 PACKAGE -0.2218
-4.1367 PAGE -0.2218
-4.1367 PAIN -0.2218
-4.1367 PAINT -0.2218
-4.1367 PAINTING -0.2218
-4.1367 PAIR -0.2218
-4.1367 PANIC -0.2218
-4.1367 PAPER -0.2218
-4.1367 PARENT -0.2218
-4.1367 PARK -0.2218
-4.1367 PARKING -0.2218
-4.1367 PART -0.2218
-4.1367 PARTICIPATE -0.2218
-4.1367 PARTICULAR -0.2218
-4.1367 PARTNER -0.2218
-4.1367 PARTY -0.2218
-4.1367 PASS -0.2218
-4.1367 PASSAGE -0.2218
-4.1367 PASSENGER -0.2218
-4.1367 PASSION -0.2218
-4.1367 PAST -0.2218
-4.1367 PATH -0.2218
-4.1367 PATIENCE -0.2218
-4.1367 PATIENT -0.2218
-4.1367 PATTERN -0.2218
-4.1367 PAUSE -0.2218
-4.1367 PAY -0.2218
-4.1367 PAYMENT -0.2218
-4.1367 PEACE -0.2218
-4.1367 PEAK -0.2218
-4.1367 PEN -0.2218
-4.1367 PENALTY -0.2218
-4.1367 PENSION -0.2218
-4.1367 PEOPLE -0.2218
-4.1367 PERCENTAGE -0.2218
-4.1367 PERCEPTION -0.2218
-4.1367 PERFECT -0.2218
-4.1367 PERFECTLY -0.2218
-4.1367 PERFORM -0.2218
-4.1367 PERFORMANCE -0.2218
-4.1367 PERIOD -0.2218
-4.1367 PERMISSION -0.2218
-4.1367 PERMIT -0.2218
-4.1367 PERSON -0.2218
-4.1367 PERSONAL -0.2218
-4.1367 PERSONALITY -0.2218
-4.1367 PERSONALLY -0.2218
-4.1367 PERSPECTIVE -0.2218
-4.1367 PERSUADE -0.2218
-4.1367 PHASE -0.2218
-4.1367 PHILOSOPHY -0.2218
-4.1367 PHONE -0.2218
-4.1367 PHOTO -0.2218
-4.1367 PHRASE -0.2218
-4.1367 PHYSICAL -0.2218
-4.1367 PHYSICALLY -0.2218
-4.1367 PHYSICS -0.2218
-4.1367 PIANO -0.2218
-4.1367 PICK -0.2218
-4.1367 PICTURE -0.2218
-4.1367 PIE -0.2218
-4.1367 PIECE -0.2218
-4.1367 PIN -0.2218
-4.1367 PIPE -0.2218
-4.1367 PITCH -0.2218
-4.1367 PIZZA -0.2218
-4.1367 PLACE -0.2218
-4.1367 PLAN -0.2218
-4.1367 PLANE -0.2218
-4.1367 PLANT -0.2218
-4.1367 PLASTIC -0.2218
-4.1367 PLATE -0.2218
-4.1367 PLATFORM -0.2218
-4.1367 PLAY -0.2218
-4.1367 PLAYER -0.2218
-4.1367 PLEASANT -0.2218
-4.1367 PLEASE -0.2218
-4.1367 PLEASED -0.2218
-4.1367 PLEASURE -0.2218
-4.1367 PLENTY -0.2218
-4.1367 PLUS -0.2218
-4.1367 POEM -0.2218
-4.1367 POET -0.2218
-4.1367 POETRY -0.2218
-4.1367 POINT -0.2218
-4.1367 POLICE -0.2218
-4.1367 POLICY -0.2218
-4.1367 POLITICAL -0.2218
-4.1367 POLITICS -0.2218
-4.1367 POLLUTION -0.2218
-4.1367 POOL -0.2218
-4.1367 POOR -0.2218
-4.1367 POP -0.2218
-4.1367 POPULAR -0.2218
-4.1367 POPULATION -0.2218
-4.1367 POSITION -0.2218
-4.1367 POSITIVE -0.2218
-4.1367 POSSESS -0.2218
-4.1367 POSSESSION -0.2218
-4.1367 POSSIBILITY -0.2218
-4.1367 POSSIBLE -0.2218
-4.1367 POSSIBLY -0.2218
-4.1367 POST -0.2218
-4.1367 POT -0.2218
-4.1367 POTATO -0.2218
-4.1367 POTENTIAL -0.2218
-4.1367 POUND -0.2218
-4.1367 POUR -0.2218
-4.1367 POWER -0.2218
-4.1367 POWERFUL -0.2218
-4.1367 PRACTICAL -0.2218
-4.1367 PRACTICE -0.2218
-4.1367 PRAY -0.2218
-4.1367 PREFER -0.2218
-4.1367 PREFERENCE -0.2218
-4.1367 PREGNANT -0.2218
-4.1367 PREPARATION -0.2218
-4.1367 PREPARE -0.2218
-4.1367 PRESENCE -0.2218
-4.1367 PRESENT -0.2218
-4.1367 PRESENTATION -0.2218
-4.1367 PRESIDENT -0.2218
-4.1367 PRESS -0.2218
-4.1367 PRESSURE -0.2218
-4.1367 PRETEND -0.2218
-4.1367 PRETTY -0.2218
-4.1367 PREVENT -0.2218
-4.1367 PREVIOUS -0.2218
-4.1367 PREVIOUSLY -0.2218
-4.1367 PRICE -0.2218
-4.1367 PRIDE -0.2218
-4.1367 PRIEST -0.2218
-4.1367 PRIMARILY -0.2218
-4.1367 PRIMARY -0.2218
-4.1367 PRINCIPLE -0.2218
-4.1367 PRINT -0.2218
-4.1367 PRIOR -0.2218
-4.1367 PRIORITY -0.2218
-4.1367 PRITI -0.2218
-4.1367 PRIVATE -0.2218
-4.1367 PRIZE -0.2218
-4.1367 PROBABLY -0.2218
-4.1367 PROBLEM -0.2218
-4.1367 PROCEDURE -0.2218
-4.1367 PROCESS -0.2218
-4.1367 PRODUCE -0.2218
-4.1367 PRODUCT -0.2218
-4.1367 PROFESSION -0.2218
-4.1367 PROFESSIONAL -0.2218
-4.1367 PROFESSOR -0.2218
-4.1367 PROFILE -0.2218
-4.1367 PROFIT -0.2218
-4.1367 PROGRAM -0.2218
-4.1367 PROGRESS -0.2218
-4.1367 PROJECT -0.2218
-4.1367 PROMISE -0.2218
-4.1367 PROMOTION -0.2218
-4.1367 PROMPT -0.2218
-4.1367 PROOF -0.2218
-4.1367 PROPER -0.2218
-4.1367 PROPERLY -0.2218
-4.1367 PROPERTY -0.2218
-4.1367 PROPOSAL -0.2218
-4.1367 PROPOSE -0.2218
-4.1367 PROPOSED -0.2218
-4.1367 PROTECT -0.2218
-4.1367 PROTECTION -0.2218
-4.1367 PROUD -0.2218
-4.1367 PROVE -0.2218
-4.1367 PROVIDE -0.2218
-4.1367 PROVIDED -0.2218
-4.1367 PSYCHOLOGICAL -0.2218
-4.1367 PSYCHOLOGY -0.2218
-4.1367 PUBLIC -0.2218
-4.1367 PULL -0.2218
-4.1367 PUNCH -0.2218
-4.1367 PURCHASE -0.2218
-4.1367 PURE -0.2218
-4.1367 PURPLE -0.2218
-4.1367 PURPOSE -0.2218
-4.1367 PURSUE -0.2218
-4.1367 PUSH -0.2218
-4.1367 PUT -0.2218
-4.1367 QUALIFY -0.2218
-4.1367 QUALITY -0.2218
-4.1367 QUANTITY -0.2218
-4.1367 QUARTER -0.2218
-4.1367 QUEEN -0.2218
-4.1367 QUESTION -0.2218
-4.1367 QUICK -0.2218
-4.1367 QUICKLY -0.2218
-4.1367 QUIET -0.2218
-4.1367 QUIT -0.2218
-4.1367 QUITE -0.2218
-4.1367 QUOTE -0.2218
-4.1367 RACE -0.2218
-4.1367 RADIO -0.2218
-4.1367 RAIN -0.2218
-4.1367 RAISE -0.2218
-4.1367 RANGE -0.2218
-4.1367 RARE -0.2218
-4.1367 RARELY -0.2218
-4.1367 RATE -0.2218
-4.1367 RATHER -0.2218
-4.1367 RATIO -0.2218
-4.1367 RAW -0.2218
-4.1367 REACH -0.2218
-4.1367 REACT -0.2218
-4.1367 REACTION -0.2218
-4.1367 READ -0.2218
-4.1367 READILY -0.2218
-4.1367 READING -0.2218
-4.1367 READY -0.2218
-4.1367 REAL -0.2218
-4.1367 REALISTIC -0.2218
-4.1367 REALITY -0.2218
-4.1367 REALIZE -0.2218
-4.1367 REALLY -0.2218
-4.1367 REASON -0.2218
-4.1367 REASONABLE -0.2218
-4.1367 RECEIVE -0.2218
-4.1367 RECENT -0.2218
-4.1367 RECENTLY -0.2218
-4.1367 RECEPTION -0.2218
-4.1367 RECIPE -0.2218
-4.1367 RECOGNITION -0.2218
-4.1367 RECOGNIZE -0.2218
-4.1367 RECOMMEND -0.2218
-4.1367 RECOMMENDATION -0.2218
-4.1367 RECORD -0.2218
-4.1367 RECORDING -0.2218
-4.1367 RECOVER -0.2218
-4.1367 RED -0.2218
-4.1367 REDUCE -0.2218
-4.1367 REFER -0.2218
-4.1367 REFERENCE -0.2218
-4.1367 REFLECT -0.2218
-4.1367 REFLECTION -0.2218
-4.1367 REFRIGERATOR -0.2218
-4.1367 REFUSE -0.2218
-4.1367 REGION -0.2218
-4.1367 REGISTER -0.2218
-4.1367 REGRET -0.2218
-4.1367 REGULAR -0.2218
-4.1367 REGULARLY -0.2218
-4.1367 RELATE -0.2218
-4.1367 RELATED -0.2218
-4.1367 RELATION -0.2218
-4.1367 RELATIONSHIP -0.2218
-4.1367 RELATIVE -0.2218
-4.1367 RELATIVELY -0.2218
-4.1367 RELAX -0.2218
-4.1367 RELEASE -0.2218
-4.1367 RELEVANT -0.2218
-4.1367 RELIEF -0.2218
-4.1367 RELIEVE -0.2218
-4.1367 RELY -0.2218
-4.1367 REMAIN -0.2218
-4.1367 REMAINING -0.2218
-4.1367 REMARKABLE -0.2218
-4.1367 REMEMBER -0.2218
-4.1367 REMIND -0.2218
-4.1367 REMOTE -0.2218
-4.1367 REMOVE -0.2218
-4.1367 RENT -0.2218
-4.1367 REPAIR -0.2218
-4.1367 REPEAT -0.2218
-4.1367 REPLACE -0.2218
-4.1367 REPLACEMENT -0.2218
-4.1367 REPLY -0.2218
-4.1367 REPORT -0.2218
-4.1367 REPRESENT -0.2218
-4.1367 REPRESENTATIVE -0.2218
-4.1367 REPUBLIC -0.2218
-4.1367 REPUTATION -0.2218
-4.1367 REQUEST -0.2218
-4.1367 REQUIRE -0.2218
-4.1367 REQUIREMENT -0.2218
-4.1367 RESEARCH -0.2218
-4.1367 RESERVE -0.2218
-4.1367 RESIDENT -0.2218
-4.1367 RESIST -0.2218
-4.1367 RESOLUTION -0.2218
-4.1367 RESOLVE -0.2218
-4.1367 RESORT -0.2218
-4.1367 RESOURCE -0.2218
-4.1367 RESPECT -0.2218
-4.1367 RESPOND -0.2218
-4.1367 RESPONSE -0.2218
-4.1367 RESPONSIBILITY -0.2218
-4.1367 RESPONSIBLE -0.2218
-4.1367 REST -0.2218
-4.1367 RESTAURANT -0.2218
-4.1367 RESULT -0.2218
-4.1367 RETAIN -0.2218
-4.1367 RETIRE -0.2218
-4.1367 RETURN -0.2218
-4.1367 REVEAL -0.2218
-4.1367 REVENUE -0.2218
-4.1367 REVIEW -0.2218
-4.1367 REVOLUTION -0.2218
-4.1367 REWARD -0.2218
-4.1367 RICE -0.2218
-4.1367 RICH -0.2218
-4.1367 RID -0.2218
-4.1367 RIDE -0.2218
-4.1367 RIGHT -0.2218
-4.1367 RING -0.2218
-4.1367 RIP -0.2218
-4.1367 RISE -0.2218
-4.1367 RISK -0.2218
-4.1367 RIVER -0.2218
-4.1367 ROAD -0.2218
-4.1367 ROCK -0.2218
-4.1367 ROLE -0.2218
-4.1367 ROLL -0.2218
-4.1367 ROOF -0.2218
-4.1367 ROOM -0.2218
-4.1367 ROPE -0.2218
-4.1367 ROUGH -0.2218
-4.1367 ROUGHLY -0.2218
-4.1367 ROUND -0.2218
-4.1367 ROUTINE -0.2218
-4.1367 ROW -0.2218
-4.1367 ROYAL -0.2218
-4.1367 RUB -0.2218
-4.1367 RUIN -0.2218
-4.1367 RULE -0.2218
-4.1367 RUN -0.2218
-4.1367 RUSH -0.2218
-4.1367 SAD -0.2218
-4.1367 SAFE -0.2218
-4.1367 SAFETY -0.2218
-4.1367 SAIL -0.2218
-4.1367 SALAD -0.2218
-4.1367 SALARY -0.2218
-4.1367 SALE -0.2218
-4.1367 SALT -0.2218
-4.1367 SAME -0.2218
-4.1367 SAMPLE -0.2218
-4.1367 SAND -0.2218
-4.1367 SANDWICH -0.2218
-4.1367 SATISFACTION -0.2218
-4.1367 SAVE -0.2218
-4.1367 SAVINGS -0.2218
-4.1367 SAY -0.2218
-4.1367 SCALE -0.2218
-4.1367 SCARED -0.2218
-4.1367 SCENE -0.2218
-4.1367 SCHEDULE -0.2218
-4.1367 SCHEME -0.2218
-4.1367 SCHOOL -0.2218
-4.1367 SCIENCE -0.2218
-4.1367 SCORE -0.2218
-4.1367 SCRATCH -0.2218
-4.1367 SCREEN -0.2218
-4.1367 SCREW -0.2218
-4.1367 SCRIPT -0.2218
-4.1367 SEA -0.2218
-4.1367 SEARCH -0.2218
-4.1367 SEASON -0.2218
-4.1367 SEAT -0.2218
-4.1367 SECOND -0.2218
-4.1367 SECRET -0.2218
-4.1367 SECRETARY -0.2218
-4.1367 SECTION -0.2218
-4.1367 SECTOR -0.2218
-4.1367 SECURE -0.2218
-4.1367 SECURITY -0.2218
-4.1367 SEE -0.2218
-4.1367 SEEK -0.2218
-4.1367 SEEM -0.2218
-4.1367 SELECT -0.2218
-4.1367 SELECTION -0.2218
-4.1367 SELF -0.2218
-4.1367 SELL -0.2218
-4.1367 SEND -0.2218
-4.1367 SENIOR -0.2218
-4.1367 SENSE -0.2218
-4.1367 SENSITIVE -0.2218
-4.1367 SENTENCE -0.2218
-4.1367 SEPARATE -0.2218
-4.1367 SERIES -0.2218
-4.1367 SERIOUS -0.2218
-4.1367 SERIOUSLY -0.2218
-4.1367 SERVE -0.2218
-4.1367 SERVICE -0.2218
-4.1367 SESSION -0.2218
-4.1367 SET -0.2218
-4.1367 SETTING -0.2218
-4.1367 SETTLE -0.2218
-4.1367 SEVERAL -0.2218
-4.1367 SEVERE -0.2218
-4.1367 SEX -0.2218
-4.1367 SEXUAL -0.2218
-4.1367 SHAKE -0.2218
-4.1367 SHALL -0.2218
-4.1367 SHAME -0.2218
-4.1367 SHAPE -0.2218
-4.1367 SHARE -0.2218
-4.1367 SHARP -0.2218
-4.1367 SHE -0.2218
-4.1367 SHELTER -0.2218
-4.1367 SHIFT -0.2218
-4.1367 SHINE -0.2218
-4.1367 SHIP -0.2218
-4.1367 SHIRT -0.2218
-4.1367 SHOCK -0.2218
-4.1367 SHOE -0.2218
-4.1367 SHOOT -0.2218
-4.1367 SHOP -0.2218
-4.1367 SHOPPING -0.2218
-4.1367 SHORT -0.2218
-4.1367 SHOT -0.2218
-4.1367 SHOULD -0.2218
-4.1367 SHOULDER -0.2218
-4.1367 SHOW -0.2218
-4.1367 SHOWER -0.2218
-4.1367 SHUT -0.2218
-4.1367 SICK -0.2218
-4.1367 SIDE -0.2218
-4.1367 SIGN -0.2218
-4.1367 SIGNAL -0.2218
-4.1367 SIGNATURE -0.2218
-4.1367 SIGNIFICANCE -0.2218
-4.1367 SIGNIFICANT -0.2218
-4.1367 SIGNIFICANTLY -0.2218
-4.1367 SILLY -0.2218
-4.1367 SILVER -0.2218
-4.1367 SIMILAR -0.2218
-4.1367 SIMILARLY -0.2218
-4.1367 SIMPLE -0.2218
-4.1367 SIMPLY -0.2218
-4.1367 SINCE -0.2218
-4.1367 SING -0.2218
-4.1367 SINGER -0.2218
-4.1367 SINGLE -0.2218
-3.8356 SINK -0.2218
-4.1367 SIR -0.2218
-4.1367 SIRI -0.2218
-4.1367 SISTER -0.2218
-4.1367 SIT -0.2218
-4.1367 SITE -0.2218
-4.1367 SITUATION -0.2218
-4.1367 SIZE -0.2218
-4.1367 SKILL -0.2218
-4.1367 SKIN -0.2218
-4.1367 SKIRT -0.2218
-4.1367 SKY -0.2218
-4.1367 SLEEP -0.2218
-4.1367 SLICE -0.2218
-4.1367 SLIDE -0.2218
-4.1367 SLIGHT -0.2218
-4.1367 SLIGHTLY -0.2218
-4.1367 SLIP -0.2218
-4.1367 SLOW -0.2218
-4.1367 SLOWLY -0.2218
-4.1367 SMALL -0.2218
-4.1367 SMART -0.2218
-4.1367 SMELL -0.2218
-4.1367 SMILE -0.2218
-4.1367 SMOKE -0.2218
-4.1367 SMOOTH -0.2218
-4.1367 SNOW -0.2218
-4.1367 SO -0.2218
-4.1367 SOCIETY -0.2218
-4.1367 SOCK -0.2218
-4.1367 SOFT -0.2218
-4.1367 SOFTWARE -0.2218
-4.1367 SOIL -0.2218
-4.1367 SOLID -0.2218
-4.1367 SOLUTION -0.2218
-4.1367 SOLVE -0.2218
-4.1367 SOME -0.2218
-4.1367 SOMEBODY -0.2218
-4.1367 SOMEHOW -0.2218
-4.1367 SOMEONE -0.2218
-4.1367 SOMETHING -0.2218
-4.1367 SOMETIMES -0.2218
-4.1367 SOMEWHAT -0.2218
-4.1367 SOMEWHERE -0.2218
-4.1367 SON -0.2218
-4.1367 SONG -0.2218
-4.1367 SOON -0.2218
-4.1367 SORRY -0.2218
-4.1367 SORT -0.2218
-4.1367 SOUND -0.2218
-4.1367 SOUP -0.2218
-4.1367 SOURCE -0.2218
-4.1367 SOUTH -0.2218
-4.1367 SOUTHERN -0.2218
-4.1367 SPACE -0.2218
-4.1367 SPARE -0.2218
-4.1367 SPEAK -0.2218
-4.1367 SPEAKER -0.2218
-4.1367 SPECIAL -0.2218
-4.1367 SPECIALIST -0.2218
-4.1367 SPECIFIC -0.2218
-4.1367 SPECIFICALLY -0.2218
-4.1367 SPECIFY -0.2218
-4.1367 SPEECH -0.2218
-4.1367 SPEED -0.2218
-4.1367 SPELL -0.2218
-4.1367 SPEND -0.2218
-4.1367 SPIRIT -0.2218
-4.1367 SPIRITUAL -0.2218
-4.1367 SPITE -0.2218
-4.1367 SPLIT -0.2218
-4.1367 SPORT -0.2218
-4.1367 SPOT -0.2218
-4.1367 SPRAY -0.2218
-4.1367 SPREAD -0.2218
-4.1367 SPRING -0.2218
-4.1367 SQUARE -0.2218
-4.1367 STABLE -0.2218
-4.1367 STAFF -0.2218
-4.1367 STAGE -0.2218
-4.1367 STAND -0.2218
-4.1367 STANDARD -0.2218
-4.1367 STAR -0.2218
-4.1367 START -0.2218
-4.1367 STATE -0.2218
-4.1367 STATEMENT -0.2218
-4.1367 STATION -0.2218
-4.1367 STATUS -0.2218
-4.1367 STAY -0.2218
-4.1367 STEAK -0.2218
-4.1367 STEAL -0.2218
-4.1367 STEP -0.2218
-4.1367 STICK -0.2218
-4.1367 STILL -0.2218
-3.8356 STOCK -0.2218
-4.1367 STOMACH -0.2218
-4.1367 STOP -0.2218
-4.1367 STORAGE -0.2218
-4.1367 STORE -0.2218
-4.1367 STORM -0.2218
-4.1367 STORY -0.2218
-4.1367 STRAIGHT -0.2218
-4.1367 STRAIN -0.2218
-4.1367 STRANGE -0.2218
-4.1367 STRANGER -0.2218
-4.1367 STRATEGY -0.2218
-4.1367 STREET -0.2218
-4.1367 STRENGTH -0.2218
-4.1367 STRESS -0.2218
-4.1367 STRETCH -0.2218
-4.1367 STRICT -0.2218
-4.1367 STRIKE -0.2218
-4.1367 STRING -0.2218
-4.1367 STRIP -0.2218
-4.1367 STROKE -0.2218
-4.1367 STRONG -0.2218
-4.1367 STRONGLY -0.2218
-4.1367 STRUCTURE -0.2218
-4.1367 STRUGGLE -0.2218
-4.1367 STUDENT -0.2218
-4.1367 STUDIO -0.2218
-4.1367 STUDY -0.2218
-4.1367 STUFF -0.2218
-4.1367 STUPID -0.2218
-4.1367 STYLE -0.2218
-4.1367 SUBJECT -0.2218
-4.1367 SUBMIT -0.2218
-4.1367 SUBSTANCE -0.2218
-4.1367 SUBSTANTIAL -0.2218
-4.1367 SUCCEED -0.2218
-4.1367 SUCCESS -0.2218
-4.1367 SUCCESSFUL -0.2218
-4.1367 SUCCESSFULLY -0.2218
-4.1367 SUCH -0.2218
-4.1367 SUCK -0.2218
-4.1367 SUDDEN -0.2218
-4.1367 SUDDENLY -0.2218
-4.1367 SUFFER -0.2218
-4.1367 SUFFICIENT -0.2218
-4.1367 SUGAR -0.2218
-4.1367 SUGGEST -0.2218
-4.1367 SUGGESTION -0.2218
-4.1367 SUIT -0.2218
-4.1367 SUITABLE -0.2218
-4.1367 SUMMER -0.2218
-4.1367 SUN -0.2218
-4.1367 SUPER -0.2218
-4.1367 SUPERMARKET -0.2218
-4.1367 SUPPLY -0.2218
-4.1367 SUPPORT -0.2218
-4.1367 SUPPOSE -0.2218
-4.1367 SURE -0.2218
-4.1367 SURGERY -0.2218
-4.1367 SURPRISE -0.2218
-4.1367 SURPRISED -0.2218
-4.1367 SURROUND -0.2218
-4.1367 SURVEY -0.2218
-4.1367 SURVIVE -0.2218
-4.1367 SUSPECT -0.2218
-4.1367 SUSPICIOUS -0.2218
-4.1367 SWEET -0.2218
-4.1367 SWIM -0.2218
-4.1367 SWIMMING -0.2218
-4.1367 SWING -0.2218
-4.1367 SWITCH -0.2218
-4.1367 SYMPATHY -0.2218
-4.1367 SYSTEM -0.2218
-4.1367 TABLE -0.2218
-4.1367 TACKLE -0.2218
-4.1367 TAKE -0.2218
-4.1367 TALE -0.2218
-4.1367 TALK -0.2218
-4.1367 TALL -0.2218
-4.1367 TANK -0.2218
-4.1367 TAP -0.2218
-4.1367 TARGET -0.2218
-4.1367 TASK -0.2218
-4.1367 TASTE -0.2218
-4.1367 TAX -0.2218
-4.1367 TEA -0.2218
-4.1367 TEACH -0.2218
-4.1367 TEACHER -0.2218
-4.1367 TEACHING -0.2218
-4.1367 TEAM -0.2218
-4.1367 TEAR -0.2218
-4.1367 TECHNICAL -0.2218
-4.1367 TECHNOLOGY -0.2218
-4.1367 TELEPHONE -0.2218
-4.1367 TELEVISION -0.2218
-4.1367 TELL -0.2218
-4.1367 TEMPERATURE -0.2218
-4.1367 TEMPORARY -0.2218
-4.1367 TEND -0.2218
-4.1367 TENNIS -0.2218
-4.1367 TENSION -0.2218
-4.1367 TERM -0.2218
-4.1367 TERRIBLE -0.2218
-4.1367 TERRIBLY -0.2218
-4.1367 TEST -0.2218
-4.1367 TEXT -0.2218
-4.1367 THAN -0.2218
-4.1367 THANK -0.2218
-4.1367 THANKS -0.2218
-4.1367 THAT -0.2218
-4.1367 THE -0.2218
-4.1367 THEIR -0.2218
-4.1367 THEM -0.2218
-4.1367 THEME -0.2218
-4.1367 THEMSELVES -0.2218
-4.1367 THEN -0.2218
-4.1367 THEORY -0.2218
-4.1367 THERE -0.2218
-4.1367 THEREFORE -0.2218
-4.1367 THESE -0.2218
-4.1367 THEY -0.2218
-4.1367 THICK -0.2218
-4.1367 THIN -0.2218
-4.1367 THING -0.2218
-4.1367 THINK -0.2218
-4.1367 THIS -0.2218
-4.1367 THOSE -0.2218
-4.1367 THOUGH -0.2218
-4.1367 THOUGHT -0.2218
-4.1367 THREE -0.2218
-4.1367 THROAT -0.2218
-4.1367 THROUGH -0.2218
-4.1367 THROUGHOUT -0.2218
-4.1367 THROW -0.2218
-4.1367 THUS -0.2218
-4.1367 TICKET -0.2218
-4.1367 TIE -0.2218
-4.1367 TIGHT -0.2218
-4.1367 TILL -0.2218
-4.1367 TIME -0.2218
-4.1367 TINY -0.2218
-4.1367 TIP -0.2218
-4.1367 TIRED -0.2218
-4.1367 TITLE -0.2218
-4.1367 TO -0.2218
-4.1367 TODAY -0.2218
-4.1367 TODO -0.2218
-4.1367 TOE -0.2218
-4.1367 TOGETHER -0.2218
-4.1367 TOMORROW -0.2218
-4.1367 TONE -0.2218
-4.1367 TONGUE -0.2218
-4.1367 TONIGHT -0.2218
-4.1367 TOO -0.2218
-4.1367 TOOL -0.2218
-4.1367 TOOTH -0.2218
-4.1367 TOP -0.2218
-4.1367 TOPIC -0.2218
-4.1367 TOTAL -0.2218
-4.1367 TOTALLY -0.2218
-4.1367 TOUCH -0.2218
-4.1367 TOUGH -0.2218
-4.1367 TOUR -0.2218
-4.1367 TOURIST -0.2218
-4.1367 TOWARDS -0.2218
-4.1367 TOWEL -0.2218
-4.1367 TOWER -0.2218
-4.1367 TOWN -0.2218
-4.1367 TRACK -0.2218
-4.1367 TRADE -0.2218
-4.1367 TRADITION -0.2218
-4.1367 TRADITIONAL -0.2218
-4.1367 TRAFFIC -0.2218
-4.1367 TRAIN -0.2218
-4.1367 TRAINER -0.2218
-4.1367 TRAINING -0.2218
-4.1367 TRANSITION -0.2218
-4.1367 TRANSLATE -0.2218
-4.1367 TRANSPORTATION -0.2218
-4.1367 TRASH -0.2218
-4.1367 TRAVEL -0.2218
-4.1367 TREAT -0.2218
-4.1367 TREE -0.2218
-4.1367 TRICK -0.2218
-4.1367 TRIP -0.2218
-4.1367 TROUBLE -0.2218
-4.1367 TRUCK -0.2218
-4.1367 TRUE -0.2218
-4.1367 TRULY -0.2218
-4.1367 TRUST -0.2218
-4.1367 TRUTH -0.2218
-4.1367 TRY -0.2218
-4.1367 TUNE -0.2218
-4.1367 TURN -0.2218
-4.1367 TWICE -0.2218
-4.1367 TWIST -0.2218
-4.1367 TWO -0.2218
-4.1367 TYPE -0.2218
-4.1367 TYPICAL -0.2218
-4.1367 UGLY -0.2218
-4.1367 ULTIMATELY -0.2218
-4.1367 UNABLE -0.2218
-4.1367 UNCLE -0.2218
-4.1367 UNDER -0.2218
-4.1367 UNDERSTAND -0.2218
-4.1367 UNDERSTANDING -0.2218
-4.1367 UNFAIR -0.2218
-4.1367 UNFORTUNATELY -0.2218
-4.1367 UNHAPPY -0.2218
-4.1367 UNION -0.2218
-4.1367 UNIQUE -0.2218
-4.1367 UNIT -0.2218
-4.1367 UNITED -0.2218
-4.1367 UNIVERSITY -0.2218
-4.1367 UNLESS -0.2218
-4.1367 UNLIKELY -0.2218
-4.1367 UNTIL -0.2218
-4.1367 UNUSUAL -0.2218
-4.1367 UP -0.2218
-4.1367 UPON -0.2218
-4.1367 UPPER -0.2218
-4.1367 UPSET -0.2218
-4.1367 UPSTAIRS -0.2218
-4.1367 US -0.2218
-4.1367 USE -0.2218
-4.1367 USED -0.2218
-4.1367 USEFUL -0.2218
-4.1367 USER -0.2218
-4.1367 USUAL -0.2218
-4.1367 USUALLY -0.2218
-4.1367 VACATION -0.2218
-4.1367 VALUABLE -0.2218
-4.1367 VALUE -0.2218
-4.1367 VARIATION -0.2218
-4.1367 VARIETY -0.2218
-4.1367 VARIOUS -0.2218
-4.1367 VARY -0.2218
-4.1367 VAST -0.2218
-4.1367 VEGETABLE -0.2218
-4.1367 VEHICLE -0.2218
-4.1367 VERSION -0.2218
-4.1367 VERY -0.2218
-4.1367 VIDEO -0.2218
-4.1367 VIEW -0.2218
-4.1367 VILLAGE -0.2218
-4.1367 VIRTUALLY -0.2218
-4.1367 VIRUS -0.2218
-4.1367 VISIBLE -0.2218
-4.1367 VISIT -0.2218
-4.1367 VISUAL -0.2218
-4.1367 VOICE -0.2218
-4.1367 VOLUME -0.2218
-4.1367 VRINDA -0.2218
-4.1367 WAIT -0.2218
-4.1367 WAKE -0.2218
-4.1367 WALK -0.2218
-4.1367 WALL -0.2218
-4.1367 WANT -0.2218
-4.1367 WAR -0.2218
-4.1367 WARM -0.2218
-4.1367 WARN -0.2218
-4.1367 WARNING -0.2218
-4.1367 WAS -0.2218
-4.1367 WASH -0.2218
-4.1367 WASTE -0.2218
-4.1367 WATCH -0.2218
-4.1367 WATER -0.2218
-4.1367 WAVE -0.2218
-4.1367 WAY -0.2218
-4.1367 WE -0.2218
-4.1367 WEAK -0.2218
-4.1367 WEAKNESS -0.2218
-4.1367 WEALTH -0.2218
-4.1367 WEAR -0.2218
-4.1367 WEATHER -0.2218
-4.1367 WEB -0.2218
-4.1367 WEDDING -0.2218
-4.1367 WEEK -0.2218
-4.1367 WEEKEND -0.2218
-4.1367 WEEKLY -0.2218
-4.1367 WEIGH -0.2218
-4.1367 WEIGHT -0.2218
-4.1367 WEIRD -0.2218
-4.1367 WELCOME -0.2218
-4.1367 WELL -0.2218
-4.1367 WERE -0.2218
-4.1367 WEST -0.2218
-4.1367 WESTERN -0.2218
-4.1367 WHAT -0.2218
-4.1367 WHATEVER -0.2218
-4.1367 WHEEL -0.2218
-4.1367 WHEN -0.2218
-4.1367 WHENEVER -0.2218
-4.1367 WHERE -0.2218
-4.1367 WHEREAS -0.2218
-4.1367 WHETHER -0.2218
-4.1367 WHICH -0.2218
-4.1367 WHILE -0.2218
-4.1367 WHITE -0.2218
-4.1367 WHO -0.2218
-4.1367 WHOEVER -0.2218
-4.1367 WHOLE -0.2218
-4.1367 WHOSE -0.2218
-4.1367 WHY -0.2218
-4.1367 WIDE -0.2218
-4.1367 WIDELY -0.2218
-4.1367 WIFE -0.2218
-4.1367 WILD -0.2218
-4.1367 WILL -0.2218
-4.1367 WILLING -0.2218
-4.1367 WIN -0.2218
-4.1367 WIND -0.2218
-4.1367 WINDOW -0.2218
-4.1367 WINE -0.2218
-4.1367 WING -0.2218
-4.1367 WINNER -0.2218
-4.1367 WINTER -0.2218
-4.1367 WISE -0.2218
-4.1367 WISH -0.2218
-4.1367 WITH -0.2218
-4.1367 WITHIN -0.2218
-4.1367 WITHOUT -0.2218
-4.1367 WITNESS -0.2218
-4.1367 WOMAN -0.2218
-4.1367 WONDER -0.2218
-4.1367 WONDERFUL -0.2218
-4.1367 WOOD -0.2218
-4.1367 WOODEN -0.2218
-4.1367 WORD -0.2218
-4.1367 WORK -0.2218
-4.1367 WORKER -0.2218
-4.1367 WORKING -0.2218
-4.1367 WORLD -0.2218
-4.1367 WORRIED -0.2218
-4.1367 WORRY -0.2218
-4.1367 WORTH -0.2218
-4.1367 WOULD -0.2218
-4.1367 WRAP -0.2218
-4.1367 WRITE -0.2218
-4.1367 WRITER -0.2218
-4.1367 WRITING -0.2218
-4.1367 WRONG -0.2218
-4.1367 YARD -0.2218
-4.1367 YEAH -0.2218
-4.1367 YEAR -0.2218
-4.1367 YELLOW -0.2218
-4.1367 YES -0.2218
-4.1367 YESTERDAY -0.2218
-4.1367 YET -0.2218
-4.1367 YOU -0.2218
-4.1367 YOUNG -0.2218
-4.1367 YOUR -0.2218
-4.1367 YOURS -0.2218
-4.1367 YOURSELF -0.2218
-4.1367 YOUTH -0.2218
-4.1367 ZONE -0.2218

\2-grams:
-3.6595 <s> A 0.0000
-3.6595 <s> ABILITY 0.0000
-3.6595 <s> ABLE 0.0000
-3.6595 <s> ABOUT 0.0000
-3.6595 <s> ABOVE 0.0000
-3.6595 <s> ABROAD 0.0000
-3.6595 <s> ABSOLUTELY 0.0000
-3.6595 <s> ABUSE 0.0000
-3.6595 <s> ACCEPT 0.0000
-3.6595 <s> ACCEPTABLE 0.0000
-3.6595 <s> ACCESS 0.0000
-3.6595 <s> ACCIDENT 0.0000
-3.6595 <s> ACCORDING 0.0000
-3.6595 <s> ACCOUNT 0.0000
-3.6595 <s> ACCURATE 0.0000
-3.6595 <s> ACCUSE 0.0000
-3.6595 <s> ACHIEVE 0.0000
-3.6595 <s> ACQUIRE 0.0000
-3.6595 <s> ACROSS 0.0000
-3.6595 <s> ACT 0.0000
-3.6595 <s> ACTION 0.0000
-3.6595 <s> ACTIVE 0.0000
-3.6595 <s> ACTIVITY 0.0000
-3.6595 <s> ACTOR 0.0000
-3.6595 <s> ACTUAL 0.0000
-3.6595 <s> ACTUALLY 0.0000
-3.6595 <s> AD 0.0000
-3.6595 <s> ADAPT 0.0000
-3.6595 <s> ADD 0.0000
-3.6595 <s> ADDITION 0.0000
-3.6595 <s> ADDITIONAL 0.0000
-3.6595 <s> ADDRESS 0.0000
-3.6595 <s> ADJUST 0.0000
-3.6595 <s> ADMINISTRATION 0.0000
-3.6595 <s> ADMINISTRATIVE 0.0000
-3.6595 <s> ADMIRE 0.0000
-3.6595 <s> ADMIT 0.0000
-3.6595 <s> ADOPT 0.0000
-3.6595 <s> ADULT 0.0000
-3.6595 <s> ADVANCE 0.0000
-3.6595 <s> ADVANCED 0.0000
-3.6595 <s> ADVANTAGE 0.0000
-3.6595 <s> ADVERTISING 0.0000
-3.6595 <s> ADVICE 0.0000
-3.6595 <s> AFFAIR 0.0000
-3.6595 <s> AFFECT 0.0000
-3.6595 <s> AFFORD 0.0000
-3.6595 <s> AFRAID 0.0000
-3.6595 <s> AFTER 0.0000
-3.6595 <s> AFTERNOON 0.0000
-3.6595 <s> AGAIN 0.0000
-3.6595 <s> AGAINST 0.0000
-3.6595 <s> AGE 0.0000
-3.6595 <s> AGENCY 0.0000
-3.6595 <s> AGENT 0.0000
-3.6595 <s> AGGRESSIVE 0.0000
-3.6595 <s> AGO 0.0000
-3.6595 <s> AGREE 0.0000
-3.6595 <s> AGREEMENT 0.0000
-3.6595 <s> AHEAD 0.0000
-3.6595 <s> AIR 0.0000
-3.6595 <s> AIRLINE 0.0000
-3.6595 <s> AIRPORT 0.0000
-3.6595 <s> ALARM 0.0000
-3.6595 <s> ALCOHOL 0.0000
-3.6595 <s> ALEXA 0.0000
-3.6595 <s> ALIVE 0.0000
-3.6595 <s> ALL 0.0000
-3.6595 <s> ALLOW 0.0000
-3.6595 <s> ALMOST 0.0000
-3.6595 <s> ALONE 0.0000
-3.6595 <s> ALONG 0.0000
-3.6595 <s> ALREADY 0.0000
-3.6595 <s> ALSO 0.0000
-3.6595 <s> ALTERNATIVE 0.0000
-3.6595 <s> ALTHOUGH 0.0000
-3.6595 <s> ALTOGETHER 0.0000
-3.6595 <s> ALWAYS 0.0000
-3.6595 <s> AMAZING 0.0000
-3.6595 <s> AMBITION 0.0000
-3.6595 <s> AMONG 0.0000
-3.6595 <s> AMOUNT 0.0000
-3.6595 <s> AN 0.0000
-3.6595 <s> ANALYSIS 0.0000
-3.6595 <s> ANALYST 0.0000
-3.6595 <s> AND 0.0000
-3.6595 <s> ANGER 0.0000
-3.6595 <s> ANGLE 0.0000
-3.6595 <s> ANGRY 0.0000
-3.6595 <s> ANIMAL 0.0000
-3.6595 <s> ANNOUNCE 0.0000
-3.6595 <s> ANNUAL 0.0000
-3.6595 <s> ANOTHER 0.0000
-3.6595 <s> ANSWER 0.0000
-3.6595 <s> ANTICIPATE 0.0000
-3.6595 <s> ANXIETY 0.0000
-3.6595 <s> ANXIOUS 0.0000
-3.6595 <s> ANY 0.0000
-3.6595 <s> ANYBODY 0.0000
-3.6595 <s> ANYONE 0.0000
-3.6595 <s> ANYTHING 0.0000
-3.6595 <s> ANYWAY 0.0000
-3.6595 <s> ANYWHERE 0.0000
-3.6595 <s> APART 0.0000
-3.6595 <s> APARTMENT 0.0000
-3.6595 <s> APOLOGIZE 0.0000
-3.6595 <s> APPEAL 0.0000
-3.6595 <s> APPEAR 0.0000
-3.6595 <s> APPEARANCE 0.0000
-3.6595 <s> APPLE 0.0000
-3.6595 <s> APPLICATION 0.0000
-3.6595 <s> APPLY 0.0000
-3.6595 <s> APPOINTMENT 0.0000
-3.6595 <s> APPRECIATE 0.0000
-3.6595 <s> APPROACH 0.0000
-3.6595 <s> APPROPRIATE 0.0000
-3.6595 <s> APPROVE 0.0000
-3.6595 <s> ARE 0.0000
-3.6595 <s> AREA 0.0000
-3.6595 <s> ARGUE 0.0000
-3.6595 <s> ARGUMENT 0.0000
-3.6595 <s> ARIA 0.0000
-3.6595 <s> ARISE 0.0000
-3.6595 <s> ARM 0.0000
-3.6595 <s> ARMY 0.0000
-3.6595 <s> AROUND 0.0000
-3.6595 <s> ARRIVAL 0.0000
-3.6595 <s> ARRIVE 0.0000
-3.6595 <s> ART 0.0000
-3.6595 <s> ARTICLE 0.0000
-3.6595 <s> AS 0.0000
-3.6595 <s> ASIDE 0.0000
-3.6595 <s> ASK 0.0000
-3.6595 <s> ASLEEP 0.0000
-3.6595 <s> ASPECT 0.0000
-3.6595 <s> ASSIGNMENT 0.0000
-3.6595 <s> ASSIST 0.0000
-3.6595 <s> ASSISTANCE 0.0000
-3.6595 <s> ASSISTANT 0.0000
-3.6595 <s> ASSOCIATE 0.0000
-3.6595 <s> ASSOCIATION 0.0000
-3.6595 <s> ASSUME 0.0000
-3.6595 <s> ASSUMPTION 0.0000
-3.6595 <s> ASSURE 0.0000
-3.6595 <s> AT 0.0000
-3.6595 <s> ATMOSPHERE 0.0000
-3.6595 <s> ATTACH 0.0000
-3.6595 <s> ATTACK 0.0000
-3.6595 <s> ATTEMPT 0.0000
-3.6595 <s> ATTEND 0.0000
-3.6595 <s> ATTENTION 0.0000
-3.6595 <s> ATTITUDE 0.0000
-3.6595 <s> ATTRACT 0.0000
-3.6595 <s> AUDIENCE 0.0000
-3.6595 <s> AUTHOR 0.0000
-3.6595 <s> AUTOMATIC 0.0000
-3.6595 <s> AUTOMATICALLY 0.0000
-3.6595 <s> AVAILABLE 0.0000
-3.6595 <s> AVERAGE 0.0000
-3.6595 <s> AVOID 0.0000
-3.6595 <s> AWARD 0.0000
-3.6595 <s> AWARE 0.0000
-3.6595 <s> AWARENESS 0.0000
-3.6595 <s> AWAY 0.0000
-3.3585 <s> BABY 0.0000
-3.6595 <s> BACK 0.0000
-3.6595 <s> BACKGROUND 0.0000
-3.6595 <s> BAD 0.0000
-3.6595 <s> BAG 0.0000
-3.6595 <s> BAKE 0.0000
-3.6595 <s> BALANCE 0.0000
-3.6595 <s> BALL 0.0000
-3.6595 <s> BAND 0.0000
-3.6595 <s> BANK 0.0000
-3.6595 <s> BAR 0.0000
-3.6595 <s> BASE 0.0000
-3.6595 <s> BASEBALL 0.0000
-3.6595 <s> BASIC 0.0000
-3.6595 <s> BASICALLY 0.0000
-3.6595 <s> BASIS 0.0000
-3.6595 <s> BASKET 0.0000
-3.6595 <s> BAT 0.0000
-3.6595 <s> BATH 0.0000
-3.6595 <s> BATHROOM 0.0000
-3.6595 <s> BATTLE 0.0000
-3.6595 <s> BE 0.0000
-3.6595 <s> BEACH 0.0000
-3.6595 <s> BEAR 0.0000
-3.6595 <s> BEAT 0.0000
-3.6595 <s> BEAUTIFUL 0.0000
-3.6595 <s> BECAUSE 0.0000
-3.6595 <s> BECOME 0.0000
-3.6595 <s> BED 0.0000
-3.6595 <s> BEDROOM 0.0000
-3.6595 <s> BEEN 0.0000
-3.6595 <s> BEER 0.0000
-3.6595 <s> BEFORE 0.0000
-3.6595 <s> BEGIN 0.0000
-3.6595 <s> BEGINNING 0.0000
-3.6595 <s> BEHAVE 0.0000
-3.6595 <s> BEHIND 0.0000
-3.6595 <s> BEING 0.0000
-3.6595 <s> BELIEVE 0.0000
-3.6595 <s> BELL 0.0000
-3.6595 <s> BELONG 0.0000
-3.6595 <s> BELOW 0.0000
-3.6595 <s> BELT 0.0000
-3.6595 <s> BENCH 0.0000
-3.6595 <s> BEND 0.0000
-3.6595 <s> BENEFIT 0.0000
-3.6595 <s> BEST 0.0000
-3.6595 <s> BET 0.0000
-3.6595 <s> BETTER 0.0000
-3.6595 <s> BETWEEN 0.0000
-3.6595 <s> BEYOND 0.0000
-3.6595 <s> BICYCLE 0.0000
-3.6595 <s> BID 0.0000
-3.6595 <s> BIG 0.0000
-3.6595 <s> BIKE 0.0000
-3.6595 <s> BILL 0.0000
-3.6595 <s> BIRD 0.0000
-3.6595 <s> BIRTH 0.0000
-3.6595 <s> BIRTHDAY 0.0000
-3.6595 <s> BIT 0.0000
-3.6595 <s> BITE 0.0000
-3.6595 <s> BITTER 0.0000
-3.6595 <s> BLACK 0.0000
-3.6595 <s> BLAME 0.0000
-3.6595 <s> BLANK 0.0000
-3.6595 <s> BLIND 0.0000
-3.6595 <s> BLOCK 0.0000
-3.6595 <s> BLOOD 0.0000
-3.6595 <s> BLOW 0.0000
-3.6595 <s> BLUE 0.0000
-3.6595 <s> BOARD 0.0000
-3.6595 <s> BOAT 0.0000
-3.6595 <s> BODY 0.0000
-3.6595 <s> BONE 0.0000
-3.6595 <s> BONUS 0.0000
-3.6595 <s> BOOK 0.0000
-3.6595 <s> BOOT 0.0000
-3.6595 <s> BORDER 0.0000
-3.6595 <s> BORING 0.0000
-3.6595 <s> BORN 0.0000
-3.6595 <s> BORROW 0.0000
-3.6595 <s> BOSS 0.0000
-3.6595 <s> BOTH 0.0000
-3.6595 <s> BOTHER 0.0000
-3.6595 <s> BOTTLE 0.0000
-3.6595 <s> BOTTOM 0.0000
-3.6595 <s> BOWL 0.0000
-3.6595 <s> BOX 0.0000
-3.6595 <s> BOY 0.0000
-3.6595 <s> BOYFRIEND 0.0000
-3.6595 <s> BRAIN 0.0000
-3.6595 <s> BRANCH 0.0000
-3.6595 <s> BRAVE 0.0000
-3.6595 <s> BREAD 0.0000
-3.6595 <s> BREAK 0.0000
-3.6595 <s> BREAKFAST 0.0000
-3.6595 <s> BREAST 0.0000
-3.6595 <s> BREATH 0.0000
-3.6595 <s> BRICK 0.0000
-3.6595 <s> BRIDGE 0.0000
-3.6595 <s> BRIEF 0.0000
-3.6595 <s> BRIEFLY 0.0000
-3.6595 <s> BRIGHT 0.0000
-3.6595 <s> BRILLIANT 0.0000
-3.6595 <s> BRING 0.0000
-3.6595 <s> BROAD 0.0000
-3.6595 <s> BROTHER 0.0000
-3.6595 <s> BROWN 0.0000
-3.6595 <s> BRUSH 0.0000
-3.6595 <s> BUDDY 0.0000
-3.6595 <s> BUDGET 0.0000
-3.6595 <s> BUG 0.0000
-3.6595 <s> BUILD 0.0000
-3.6595 <s> BUILDING 0.0000
-3.6595 <s> BUNCH 0.0000
-3.6595 <s> BURN 0.0000
-3.6595 <s> BUS 0.0000
-3.6595 <s> BUSINESS 0.0000
-3.6595 <s> BUSY 0.0000
-3.6595 <s> BUT 0.0000
-3.6595 <s> BUTTON 0.0000
-3.6595 <s> BUY 0.0000
-3.6595 <s> BUYER 0.0000
-3.6595 <s> BY 0.0000
-3.6595 <s> CABINET 0.0000
-3.6595 <s> CABLE 0.0000
-3.6595 <s> CAKE 0.0000
-3.6595 <s> CALCULATE 0.0000
-3.3585 <s> CALENDAR 0.0000
-3.6595 <s> CALL 0.0000
-3.6595 <s> CALM 0.0000
-3.6595 <s> CAMERA 0.0000
-3.6595 <s> CAMP 0.0000
-3.6595 <s> CAMPAIGN 0.0000
-3.6595 <s> CAN 0.0000
-3.6595 <s> CANCEL 0.0000
-3.6595 <s> CANCER 0.0000
-3.6595 <s> CANDIDATE 0.0000
-3.6595 <s> CANDLE 0.0000
-3.6595 <s> CANDY 0.0000
-3.6595 <s> CAP 0.0000
-3.6595 <s> CAPABLE 0.0000
-3.6595 <s> CAPITAL 0.0000
-3.6595 <s> CAR 0.0000
-3.6595 <s> CARD 0.0000
-3.6595 <s> CARE 0.0000
-3.6595 <s> CAREER 0.0000
-3.6595 <s> CAREFUL 0.0000
-3.6595 <s> CAREFULLY 0.0000
-3.6595 <s> CARPET 0.0000
-3.6595 <s> CARRY 0.0000
-3.6595 <s> CASE 0.0000
-3.6595 <s> CASH 0.0000
-3.6595 <s> CAT 0.0000
-3.6595 <s> CATCH 0.0000
-3.6595 <s> CATEGORY 0.0000
-3.6595 <s> CAUSE 0.0000
-3.6595 <s> CELEBRATE 0.0000
-3.6595 <s> CELEBRATION 0.0000
-3.6595 <s> CELL 0.0000
-3.6595 <s> CERTAIN 0.0000
-3.6595 <s> CERTAINLY 0.0000
-3.6595 <s> CHAI 0.0000
-3.6595 <s> CHAIN 0.0000
-3.6595 <s> CHAIR 0.0000
-3.6595 <s> CHALLENGE 0.0000
-3.6595 <s> CHAMPION 0.0000
-3.6595 <s> CHAMPIONSHIP 0.0000
-3.6595 <s> CHANCE 0.0000
-3.6595 <s> CHANGE 0.0000
-3.6595 <s> CHANNEL 0.0000
-3.6595 <s> CHAPTER 0.0000
-3.6595 <s> CHARACTER 0.0000
-3.6595 <s> CHARGE 0.0000
-3.6595 <s> CHARITY 0.0000
-3.6595 <s> CHART 0.0000
-3.6595 <s> CHEAP 0.0000
-3.6595 <s> CHECK 0.0000
-3.6595 <s> CHEEK 0.0000
-3.6595 <s> CHEMICAL 0.0000
-3.6595 <s> CHEMISTRY 0.0000
-3.6595 <s> CHEST 0.0000
-3.6595 <s> CHICKEN 0.0000
-3.6595 <s> CHILD 0.0000
-3.6595 <s> CHILDHOOD 0.0000
-3.6595 <s> CHIP 0.0000
-3.6595 <s> CHOCOLATE 0.0000
-3.6595 <s> CHOICE 0.0000
-3.6595 <s> CHOOSE 0.0000
-3.6595 <s> CHURCH 0.0000
-3.6595 <s> CIGARETTE 0.0000
-3.6595 <s> CITY 0.0000
-3.6595 <s> CIVIL 0.0000
-3.6595 <s> CLAIM 0.0000
-3.6595 <s> CLASS 0.0000
-3.6595 <s> CLASSIC 0.0000
-3.6595 <s> CLASSROOM 0.0000
-3.6595 <s> CLEAN 0.0000
-3.6595 <s> CLEAR 0.0000
-3.6595 <s> CLEARLY 0.0000
-3.6595 <s> CLERK 0.0000
-3.6595 <s> CLICK 0.0000
-3.6595 <s> CLIENT 0.0000
-3.6595 <s> CLIMATE 0.0000
-3.6595 <s> CLOCK 0.0000
-3.6595 <s> CLOSE 0.0000
-3.6595 <s> CLOSED 0.0000
-3.6595 <s> CLOSELY 0.0000
-3.6595 <s> CLOSET 0.0000
-3.6595 <s> CLOTHES 0.0000
-3.6595 <s> CLOUD 0.0000
-3.6595 <s> CLUB 0.0000
-3.6595 <s> CLUE 0.0000
-3.6595 <s> COACH 0.0000
-3.6595 <s> COAST 0.0000
-3.6595 <s> COAT 0.0000
-3.6595 <s> CODE 0.0000
-3.6595 <s> COFFEE 0.0000
-3.6595 <s> COLD 0.0000
-3.6595 <s> COLLAR 0.0000
-3.6595 <s> COLLECT 0.0000
-3.6595 <s> COLLECTION 0.0000
-3.6595 <s> COLLEGE 0.0000
-3.6595 <s> COMBINATION 0.0000
-3.6595 <s> COMBINE 0.0000
-3.6595 <s> COME 0.0000
-3.6595 <s> COMFORT 0.0000
-3.6595 <s> COMFORTABLE 0.0000
-3.6595 <s> COMMAND 0.0000
-3.6595 <s> COMMENT 0.0000
-3.6595 <s> COMMERCIAL 0.0000
-3.6595 <s> COMMISSION 0.0000
-3.6595 <s> COMMIT 0.0000
-3.6595 <s> COMMITTEE 0.0000
-3.6595 <s> COMMON 0.0000
-3.6595 <s> COMMUNICATE 0.0000
-3.6595 <s> COMMUNICATION 0.0000
-3.6595 <s> COMMUNITY 0.0000
-3.6595 <s> COMPANY 0.0000
-3.6595 <s> COMPARE 0.0000
-3.6595 <s> COMPARISON 0.0000
-3.6595 <s> COMPETE 0.0000
-3.6595 <s> COMPETITION 0.0000
-3.6595 <s> COMPETITIVE 0.0000
-3.6595 <s> COMPLAIN 0.0000
-3.6595 <s> COMPLAINT 0.0000
-3.6595 <s> COMPLETE 0.0000
-3.6595 <s> COMPLETELY 0.0000
-3.6595 <s> COMPLEX 0.0000
-3.6595 <s> COMPLICATED 0.0000
-3.6595 <s> COMPREHENSIVE 0.0000
-3.6595 <s> COMPUTER 0.0000
-3.6595 <s> CONCENTRATE 0.0000
-3.6595 <s> CONCEPT 0.0000
-3.6595 <s> CONCERN 0.0000
-3.6595 <s> CONCERNED 0.0000
-3.6595 <s> CONCERNING 0.0000
-3.6595 <s> CONCERT 0.0000
-3.6595 <s> CONCLUSION 0.0000
-3.6595 <s> CONDITION 0.0000
-3.6595 <s> CONFERENCE 0.0000
-3.6595 <s> CONFIDENCE 0.0000
-3.6595 <s> CONFIDENT 0.0000
-3.6595 <s> CONFIRM 0.0000
-3.6595 <s> CONFLICT 0.0000
-3.6595 <s> CONFUSION 0.0000
-3.6595 <s> CONNECT 0.0000
-3.6595 <s> CONNECTION 0.0000
-3.6595 <s> CONSCIOUS 0.0000
-3.6595 <s> CONSEQUENCE 0.0000
-3.6595 <s> CONSIDER 0.0000
-3.6595 <s> CONSIDERATION 0.0000
-3.6595 <s> CONSIST 0.0000
-3.6595 <s> CONSISTENT 0.0000
-3.6595 <s> CONSTANT 0.0000
-3.6595 <s> CONSTANTLY 0.0000
-3.6595 <s> CONSTRUCTION 0.0000
-3.6595 <s> CONSULT 0.0000
-3.6595 <s> CONTACT 0.0000
-3.6595 <s> CONTAIN 0.0000
-3.6595 <s> CONTENT 0.0000
-3.6595 <s> CONTEST 0.0000
-3.6595 <s> CONTEXT 0.0000
-3.6595 <s> CONTINUE 0.0000
-3.6595 <s> CONTRACT 0.0000
-3.6595 <s> CONTRIBUTE 0.0000
-3.6595 <s> CONTRIBUTION 0.0000
-3.6595 <s> CONTROL 0.0000
-3.6595 <s> CONVERSATION 0.0000
-3.6595 <s> CONVERT 0.0000
-3.6595 <s> CONVINCE 0.0000
-3.6595 <s> COOK 0.0000
-3.6595 <s> COOKIE 0.0000
-3.6595 <s> COOL 0.0000
-3.6595 <s> COPY 0.0000
-3.6595 <s> CORNER 0.0000
-3.6595 <s> CORRECT 0.0000
-3.6595 <s> COST 0.0000
-3.6595 <s> COULD 0.0000
-3.6595 <s> COUNT 0.0000
-3.6595 <s> COUNTER 0.0000
-3.6595 <s> COUNTRY 0.0000
-3.6595 <s> COUNTY 0.0000
-3.6595 <s> COUPLE 0.0000
-3.6595 <s> COURAGE 0.0000
-3.6595 <s> COURSE 0.0000
-3.6595 <s> COURT 0.0000
-3.6595 <s> COUSIN 0.0000
-3.6595 <s> COVER 0.0000
-3.6595 <s> COW 0.0000
-3.6595 <s> CRACK 0.0000
-3.6595 <s> CRAFT 0.0000
-3.6595 <s> CRASH 0.0000
-3.6595 <s> CRAZY 0.0000
-3.6595 <s> CREAM 0.0000
-3.6595 <s> CREATE 0.0000
-3.6595 <s> CREATIVE 0.0000
-3.6595 <s> CREDIT 0.0000
-3.6595 <s> CREW 0.0000
-3.6595 <s> CRITICAL 0.0000
-3.6595 <s> CRITICISM 0.0000
-3.6595 <s> CRITICIZE 0.0000
-3.6595 <s> CROSS 0.0000
-3.6595 <s> CRY 0.0000
-3.6595 <s> CULTURAL 0.0000
-3.6595 <s> CULTURE 0.0000
-3.6595 <s> CUP 0.0000
-3.6595 <s> CURIOUS 0.0000
-3.6595 <s> CURRENCY 0.0000
-3.6595 <s> CURRENT 0.0000
-3.6595 <s> CURRENTLY 0.0000
-3.6595 <s> CURVE 0.0000
-3.6595 <s> CUSTOMER 0.0000
-3.6595 <s> CUT 0.0000
-3.6595 <s> CUTE 0.0000
-3.6595 <s> CYCLE 0.0000
-3.6595 <s> DAD 0.0000
-3.6595 <s> DAILY 0.0000
-3.6595 <s> DAMAGE 0.0000
-3.6595 <s> DANCE 0.0000
-3.6595 <s> DANGEROUS 0.0000
-3.6595 <s> DARE 0.0000
-3.6595 <s> DARK 0.0000
-3.6595 <s> DATA 0.0000
-3.6595 <s> DATABASE 0.0000
-3.6595 <s> DATE 0.0000
-3.6595 <s> DAUGHTER 0.0000
-3.6595 <s> DAY 0.0000
-3.6595 <s> DEAD 0.0000
-3.6595 <s> DEAL 0.0000
-3.6595 <s> DEALER 0.0000
-3.6595 <s> DEAR 0.0000
-3.6595 <s> DEATH 0.0000
-3.6595 <s> DEBATE 0.0000
-3.6595 <s> DEBT 0.0000
-3.6595 <s> DECENT 0.0000
-3.6595 <s> DECIDE 0.0000
-3.6595 <s> DECISION 0.0000
-3.6595 <s> DEEP 0.0000
-3.6595 <s> DEEPLY 0.0000
-3.6595 <s> DEFINITELY 0.0000
-3.6595 <s> DEFINITION 0.0000
-3.6595 <s> DEGREE 0.0000
-3.6595 <s> DELAY 0.0000
-3.6595 <s> DELIBERATELY 0.0000
-3.6595 <s> DELIVER 0.0000
-3.6595 <s> DELIVERY 0.0000
-3.6595 <s> DEMAND 0.0000
-3.6595 <s> DEPARTMENT 0.0000
-3.6595 <s> DEPARTURE 0.0000
-3.6595 <s> DEPEND 0.0000
-3.6595 <s> DEPENDENT 0.0000
-3.6595 <s> DEPOSIT 0.0000
-3.6595 <s> DEPRESSION 0.0000
-3.6595 <s> DEPTH 0.0000
-3.6595 <s> DESCRIBE 0.0000
-3.6595 <s> DESCRIPTION 0.0000
-3.6595 <s> DESERVE 0.0000
-3.6595 <s> DESIGN 0.0000
-3.6595 <s> DESIGNER 0.0000
-3.6595 <s> DESIRE 0.0000
-3.6595 <s> DESK 0.0000
-3.6595 <s> DESPERATE 0.0000
-3.6595 <s> DESPITE 0.0000
-3.6595 <s> DESTROY 0.0000
-3.6595 <s> DETAIL 0.0000
-3.6595 <s> DETAILED 0.0000
-3.6595 <s> DETERMINE 0.0000
-3.6595 <s> DEVELOP 0.0000
-3.6595 <s> DEVELOPMENT 0.0000
-3.6595 <s> DEVICE 0.0000
-3.6595 <s> DEVIL 0.0000
-3.6595 <s> DIAMOND 0.0000
-3.6595 <s> DIE 0.0000
-3.6595 <s> DIET 0.0000
-3.6595 <s> DIFFER 0.0000
-3.6595 <s> DIFFERENCE 0.0000
-3.6595 <s> DIFFERENT 0.0000
-3.6595 <s> DIFFICULT 0.0000
-3.6595 <s> DIFFICULTY 0.0000
-3.6595 <s> DIG 0.0000
-3.6595 <s> DIMENSION 0.0000
-3.6595 <s> DINNER 0.0000
-3.6595 <s> DIRECT 0.0000
-3.6595 <s> DIRECTION 0.0000
-3.6595 <s> DIRECTLY 0.0000
-3.6595 <s> DIRECTOR 0.0000
-3.6595 <s> DIRT 0.0000
-3.6595 <s> DIRTY 0.0000
-3.6595 <s> DISAGREE 0.0000
-3.6595 <s> DISAPPOINTED 0.0000
-3.6595 <s> DISASTER 0.0000
-3.6595 <s> DISCIPLINE 0.0000
-3.6595 <s> DISCOUNT 0.0000
-3.6595 <s> DISCOVER 0.0000
-3.6595 <s> DISCUSS 0.0000
-3.6595 <s> DISCUSSION 0.0000
-3.6595 <s> DISEASE 0.0000
-3.6595 <s> DISH 0.0000
-3.6595 <s> DISK 0.0000
-3.6595 <s> DISPLAY 0.0000
-3.6595 <s> DISTANCE 0.0000
-3.6595 <s> DISTINCT 0.0000
-3.6595 <s> DISTRIBUTE 0.0000
-3.6595 <s> DISTRIBUTION 0.0000
-3.6595 <s> DISTRICT 0.0000
-3.6595 <s> DIVIDE 0.0000
-3.6595 <s> DO 0.0000
-3.6595 <s> DOCTOR 0.0000
-3.6595 <s> DOCUMENT 0.0000
-3.6595 <s> DOES 0.0000
-3.6595 <s> DOG 0.0000
-3.6595 <s> DOOR 0.0000
-3.6595 <s> DOT 0.0000
-3.6595 <s> DOUBLE 0.0000
-3.6595 <s> DOUBT 0.0000
-3.6595 <s> DOWN 0.0000
-3.6595 <s> DOWNTOWN 0.0000
-3.6595 <s> DRAFT 0.0000
-3.6595 <s> DRAG 0.0000
-3.6595 <s> DRAMA 0.0000
-3.6595 <s> DRAMATIC 0.0000
-3.6595 <s> DRAW 0.0000
-3.6595 <s> DRAWER 0.0000
-3.6595 <s> DRAWING 0.0000
-3.6595 <s> DREAM 0.0000
-3.6595 <s> DRESS 0.0000
-3.6595 <s> DRINK 0.0000
-3.6595 <s> DRIVE 0.0000
-3.6595 <s> DRIVER 0.0000
-3.6595 <s> DROP 0.0000
-3.6595 <s> DRUNK 0.0000
-3.6595 <s> DRY 0.0000
-3.6595 <s> DUE 0.0000
-3.6595 <s> DUMP 0.0000
-3.6595 <s> DURING 0.0000
-3.6595 <s> DUST 0.0000
-3.6595 <s> DUTY 0.0000
-3.6595 <s> EACH 0.0000
-3.6595 <s> EAR 0.0000
-3.6595 <s> EARLY 0.0000
-3.6595 <s> EARN 0.0000
-3.6595 <s> EARTH 0.0000
-3.6595 <s> EASE 0.0000
-3.6595 <s> EASILY 0.0000
-3.6595 <s> EAST 0.0000
-3.6595 <s> EASTERN 0.0000
-3.6595 <s> EASY 0.0000
-3.6595 <s> EAT 0.0000
-3.6595 <s> ECONOMICS 0.0000
-3.6595 <s> ECONOMY 0.0000
-3.6595 <s> EDGE 0.0000
-3.6595 <s> EDITOR 0.0000
-3.6595 <s> EDUCATION 0.0000
-3.6595 <s> EDUCATIONAL 0.0000
-3.6595 <s> EFFECT 0.0000
-3.6595 <s> EFFECTIVE 0.0000
-3.6595 <s> EFFECTIVELY 0.0000
-3.6595 <s> EFFICIENCY 0.0000
-3.6595 <s> EFFICIENT 0.0000
-3.6595 <s> EFFORT 0.0000
-3.6595 <s> EGG 0.0000
-3.6595 <s> EITHER 0.0000
-3.6595 <s> ELECTION 0.0000
-3.6595 <s> ELECTRICAL 0.0000
-3.6595 <s> ELECTRONIC 0.0000
-3.6595 <s> ELEVATOR 0.0000
-3.6595 <s> ELSE 0.0000
-3.6595 <s> ELSEWHERE 0.0000
-3.6595 <s> EMBARRASSED 0.0000
-3.6595 <s> EMERGENCY 0.0000
-3.6595 <s> EMOTION 0.0000
-3.6595 <s> EMOTIONAL 0.0000
-3.6595 <s> EMPHASIS 0.0000
-3.6595 <s> EMPHASIZE 0.0000
-3.6595 <s> EMPLOY 0.0000
-3.6595 <s> EMPLOYEE 0.0000
-3.6595 <s> EMPLOYER 0.0000
-3.6595 <s> EMPLOYMENT 0.0000
-3.6595 <s> EMPTY 0.0000
-3.6595 <s> ENABLE 0.0000
-3.6595 <s> ENCOURAGE 0.0000
-3.6595 <s> ENCOURAGING 0.0000
-3.6595 <s> END 0.0000
-3.6595 <s> ENERGY 0.0000
-3.6595 <s> ENGAGE 0.0000
-3.6595 <s> ENGINE 0.0000
-3.6595 <s> ENGINEER 0.0000
-3.6595 <s> ENGINEERING 0.0000
-3.6595 <s> ENHANCE 0.0000
-3.6595 <s> ENJOY 0.0000
-3.6595 <s> ENOUGH 0.0000
-3.6595 <s> ENSURE 0.0000
-3.6595 <s> ENTER 0.0000
-3.6595 <s> ENTERTAINMENT 0.0000
-3.6595 <s> ENTHUSIASM 0.0000
-3.6595 <s> ENTIRE 0.0000
-3.6595 <s> ENTRANCE 0.0000
-3.6595 <s> ENTRY 0.0000
-3.6595 <s> ENVIRONMENT 0.0000
-3.6595 <s> ENVIRONMENTAL 0.0000
-3.6595 <s> EQUAL 0.0000
-3.6595 <s> EQUALLY 0.0000
-3.6595 <s> EQUIPMENT 0.0000
-3.6595 <s> EQUIVALENT 0.0000
-3.6595 <s> ERROR 0.0000
-3.6595 <s> ESCAPE 0.0000
-3.6595 <s> ESPECIALLY 0.0000
-3.6595 <s> ESSAY 0.0000
-3.6595 <s> ESSENTIALLY 0.0000
-3.6595 <s> ESTABLISH 0.0000
-3.6595 <s> ESTABLISHMENT 0.0000
-3.6595 <s> ESTATE 0.0000
-3.6595 <s> ESTIMATE 0.0000
-3.6595 <s> EVEN 0.0000
-3.6595 <s> EVENING 0.0000
-3.6595 <s> EVENT 0.0000
-3.6595 <s> EVENTUALLY 0.0000
-3.6595 <s> EVER 0.0000
-3.6595 <s> EVERY 0.0000
-3.6595 <s> EVERYBODY 0.0000
-3.6595 <s> EVERYONE 0.0000
-3.6595 <s> EVERYTHING 0.0000
-3.6595 <s> EVERYWHERE 0.0000
-3.6595 <s> EVIDENCE 0.0000
-3.6595 <s> EXACT 0.0000
-3.6595 <s> EXACTLY 0.0000
-3.6595 <s> EXAM 0.0000
-3.6595 <s> EXAMINATION 0.0000
-3.6595 <s> EXAMINE 0.0000
-3.6595 <s> EXAMPLE 0.0000
-3.6595 <s> EXCELLENT 0.0000
-3.6595 <s> EXCEPT 0.0000
-3.6595 <s> EXCHANGE 0.0000
-3.6595 <s> EXCITEMENT 0.0000
-3.6595 <s> EXCITING 0.0000
-3.6595 <s> EXCUSE 0.0000
-3.6595 <s> EXERCISE 0.0000
-3.6595 <s> EXIST 0.0000
-3.6595 <s> EXISTING 0.0000
-3.6595 <s> EXIT 0.0000
-3.6595 <s> EXPAND 0.0000
-3.6595 <s> EXPECT 0.0000
-3.6595 <s> EXPENSIVE 0.0000
-3.6595 <s> EXPERIENCE 0.0000
-3.6595 <s> EXPERIENCED 0.0000
-3.6595 <s> EXPERT 0.0000
-3.6595 <s> EXPLAIN 0.0000
-3.6595 <s> EXPLANATION 0.0000
-3.6595 <s> EXPLORE 0.0000
-3.6595 <s> EXPOSE 0.0000
-3.6595 <s> EXPRESS 0.0000
-3.6595 <s> EXPRESSION 0.0000
-3.6595 <s> EXTEND 0.0000
-3.6595 <s> EXTENSION 0.0000
-3.6595 <s> EXTENT 0.0000
-3.6595 <s> EXTERNAL 0.0000
-3.6595 <s> EXTRA 0.0000
-3.6595 <s> EXTREME 0.0000
-3.6595 <s> EXTREMELY 0.0000
-3.6595 <s> EYE 0.0000
-3.6595 <s> FACE 0.0000
-3.6595 <s> FACT 0.0000
-3.6595 <s> FACTOR 0.0000
-3.6595 <s> FAIL 0.0000
-3.6595 <s> FAILURE 0.0000
-3.6595 <s> FAIR 0.0000
-3.6595 <s> FAIRLY 0.0000
-3.6595 <s> FAKE 0.0000
-3.6595 <s> FALL 0.0000
-3.6595 <s> FALSE 0.0000
-3.6595 <s> FAMILIAR 0.0000
-3.6595 <s> FAMILY 0.0000
-3.6595 <s> FAMOUS 0.0000
-3.6595 <s> FAN 0.0000
-3.6595 <s> FAR 0.0000
-3.6595 <s> FARM 0.0000
-3.6595 <s> FARMER 0.0000
-3.6595 <s> FAST 0.0000
-3.6595 <s> FAT 0.0000
-3.6595 <s> FATHER 0.0000
-3.6595 <s> FAULT 0.0000
-3.6595 <s> FEAR 0.0000
-3.6595 <s> FEATURE 0.0000
-3.6595 <s> FEDERAL 0.0000
-3.6595 <s> FEE 0.0000
-3.6595 <s> FEED 0.0000
-3.6595 <s> FEEDBACK 0.0000
-3.6595 <s> FEEL 0.0000
-3.6595 <s> FEELING 0.0000
-3.6595 <s> FEMALE 0.0000
-3.6595 <s> FEW 0.0000
-3.6595 <s> FIELD 0.0000
-3.6595 <s> FIGHT 0.0000
-3.6595 <s> FIGURE 0.0000
-3.6595 <s> FILE 0.0000
-3.6595 <s> FILL 0.0000
-3.6595 <s> FILM 0.0000
-3.6595 <s> FINAL 0.0000
-3.6595 <s> FINALLY 0.0000
-3.6595 <s> FINANCE 0.0000
-3.6595 <s> FINANCIAL 0.0000
-3.6595 <s> FIND 0.0000
-3.6595 <s> FINDING 0.0000
-3.6595 <s> FINE 0.0000
-3.6595 <s> FINGER 0.0000
-3.6595 <s> FINISH 0.0000
-3.6595 <s> FIRE 0.0000
-3.6595 <s> FIRM 0.0000
-3.6595 <s> FIRST 0.0000
-3.6595 <s> FISH 0.0000
-3.6595 <s> FISHING 0.0000
-3.6595 <s> FIT 0.0000
-3.6595 <s> FIX 0.0000
-3.6595 <s> FIXED 0.0000
-3.6595 <s> FLAT 0.0000
-3.6595 <s> FLIGHT 0.0000
-3.6595 <s> FLOOR 0.0000
-3.6595 <s> FLOW 0.0000
-3.6595 <s> FLOWER 0.0000
-3.6595 <s> FLOWERS 0.0000
-3.6595 <s> FLY 0.0000
-3.6595 <s> FOCUS 0.0000
-3.6595 <s> FOLD 0.0000
-3.6595 <s> FOLLOW 0.0000
-3.6595 <s> FOLLOWING 0.0000
-3.6595 <s> FOOD 0.0000
-3.6595 <s> FOOT 0.0000
-3.6595 <s> FOOTBALL 0.0000
-3.6595 <s> FOR 0.0000
-3.6595 <s> FORCE 0.0000
-3.6595 <s> FOREIGN 0.0000
-3.6595 <s> FOREVER 0.0000
-3.6595 <s> FORGET 0.0000
-3.6595 <s> FORM 0.0000
-3.6595 <s> FORMAL 0.0000
-3.6595 <s> FORMER 0.0000
-3.6595 <s> FORTH 0.0000
-3.6595 <s> FORTUNE 0.0000
-3.6595 <s> FORWARD 0.0000
-3.6595 <s> FOUNDATION 0.0000
-3.6595 <s> FRAME 0.0000
-3.6595 <s> FREE 0.0000
-3.6595 <s> FREEDOM 0.0000
-3.6595 <s> FREQUENT 0.0000
-3.6595 <s> FREQUENTLY 0.0000
-3.6595 <s> FRESH 0.0000
-3.6595 <s> FRIEND 0.0000
-3.6595 <s> FRIENDLY 0.0000
-3.6595 <s> FRIENDSHIP 0.0000
-3.6595 <s> FROM 0.0000
-3.6595 <s> FRONT 0.0000
-3.6595 <s> FRUIT 0.0000
-3.6595 <s> FUEL 0.0000
-3.6595 <s> FULL 0.0000
-3.6595 <s> FULLY 0.0000
-3.6595 <s> FUN 0.0000
-3.6595 <s> FUNCTION 0.0000
-3.6595 <s> FUNERAL 0.0000
-3.6595 <s> FUNNY 0.0000
-3.6595 <s> FUTURE 0.0000
-3.6595 <s> GAIN 0.0000
-3.6595 <s> GAME 0.0000
-3.6595 <s> GAP 0.0000
-3.6595 <s> GARAGE 0.0000
-3.6595 <s> GARBAGE 0.0000
-3.6595 <s> GARDEN 0.0000
-3.6595 <s> GAS 0.0000
-3.6595 <s> GATE 0.0000
-3.6595 <s> GATHER 0.0000
-3.6595 <s> GEAR 0.0000
-3.6595 <s> GENE 0.0000
-3.6595 <s> GENERAL 0.0000
-3.6595 <s> GENERALLY 0.0000
-3.6595 <s> GENERATE 0.0000
-3.6595 <s> GENTLY 0.0000
-3.6595 <s> GET 0.0000
-3.6595 <s> GIFT 0.0000
-3.6595 <s> GIRL 0.0000
-3.6595 <s> GIRLFRIEND 0.0000
-3.6595 <s> GIVE 0.0000
-3.6595 <s> GLAD 0.0000
-3.6595 <s> GLASS 0.0000
-3.6595 <s> GLOBAL 0.0000
-3.6595 <s> GLOVE 0.0000
-3.6595 <s> GO 0.0000
-3.6595 <s> GOAL 0.0000
-3.6595 <s> GOD 0.0000
-3.6595 <s> GOLD 0.0000
-3.6595 <s> GOLF 0.0000
-3.6595 <s> GOOD 0.0000
-3.6595 <s> GOVERNMENT 0.0000
-3.6595 <s> GRAB 0.0000
-3.6595 <s> GRADE 0.0000
-3.6595 <s> GRAND 0.0000
-3.6595 <s> GRANDFATHER 0.0000
-3.6595 <s> GRANDMOTHER 0.0000
-3.6595 <s> GRASS 0.0000
-3.6595 <s> GREAT 0.0000
-3.6595 <s> GREATLY 0.0000
-3.6595 <s> GREEN 0.0000
-3.6595 <s> GROCERY 0.0000
-3.6595 <s> GROSS 0.0000
-3.6595 <s> GROUND 0.0000
-3.6595 <s> GROUP 0.0000
-3.6595 <s> GROW 0.0000
-3.6595 <s> GROWTH 0.0000
-3.6595 <s> GUARANTEE 0.0000
-3.6595 <s> GUARD 0.0000
-3.6595 <s> GUESS 0.0000
-3.6595 <s> GUEST 0.0000
-3.6595 <s> GUIDANCE 0.0000
-3.6595 <s> GUIDE 0.0000
-3.6595 <s> GUILTY 0.0000
-3.6595 <s> GUITAR 0.0000
-3.6595 <s> GUY 0.0000
-3.6595 <s> HABIT 0.0000
-3.6595 <s> HAD 0.0000
-3.6595 <s> HAIR 0.0000
-3.6595 <s> HALF 0.0000
-3.6595 <s> HALL 0.0000
-3.6595 <s> HAND 0.0000
-3.6595 <s> HANDLE 0.0000
-3.6595 <s> HANG 0.0000
-3.6595 <s> HAPPEN 0.0000
-3.6595 <s> HAPPY 0.0000
-3.6595 <s> HARD 0.0000
-3.6595 <s> HARDLY 0.0000
-3.6595 <s> HARM 0.0000
-3.6595 <s> HAS 0.0000
-3.6595 <s> HAT 0.0000
-3.6595 <s> HATE 0.0000
-3.6595 <s> HAVE 0.0000
-3.6595 <s> HE 0.0000
-3.6595 <s> HEAD 0.0000
-3.6595 <s> HEALTH 0.0000
-3.6595 <s> HEALTHY 0.0000
-3.6595 <s> HEAR 0.0000
-3.6595 <s> HEARING 0.0000
-3.6595 <s> HEART 0.0000
-3.6595 <s> HEAT 0.0000
-3.6595 <s> HEAVY 0.0000
-3.6595 <s> HEIGHT 0.0000
-3.6595 <s> HELL 0.0000
-3.6595 <s> HELLO 0.0000
-3.6595 <s> HELP 0.0000
-3.6595 <s> HELPFUL 0.0000
-3.6595 <s> HER 0.0000
-3.6595 <s> HERE 0.0000
-3.6595 <s> HERSELF 0.0000
-3.6595 <s> HESITATE 0.0000
-3.6595 <s> HI 0.0000
-3.6595 <s> HIDE 0.0000
-3.6595 <s> HIGH 0.0000
-3.6595 <s> HIGHLIGHT 0.0000
-3.6595 <s> HIGHLY 0.0000
-3.6595 <s> HIGHWAY 0.0000
-3.6595 <s> HIM 0.0000
-3.6595 <s> HIMSELF 0.0000
-3.6595 <s> HIRE 0.0000
-3.6595 <s> HIS 0.0000
-3.6595 <s> HISTORIAN 0.0000
-3.6595 <s> HISTORICAL 0.0000
-3.6595 <s> HISTORY 0.0000
-3.6595 <s> HIT 0.0000
-3.6595 <s> HOLD 0.0000
-3.6595 <s> HOLE 0.0000
-3.6595 <s> HOLIDAY 0.0000
-3.3585 <s> HOME 0.0000
-3.6595 <s> HOMEWORK 0.0000
-3.6595 <s> HONEST 0.0000
-3.6595 <s> HONESTLY 0.0000
-3.6595 <s> HONEY 0.0000
-3.6595 <s> HOOK 0.0000
-3.6595 <s> HOPE 0.0000
-3.6595 <s> HOPEFULLY 0.0000
-3.6595 <s> HORROR 0.0000
-3.6595 <s> HORSE 0.0000
-3.6595 <s> HOSPITAL 0.0000
-3.6595 <s> HOST 0.0000
-3.6595 <s> HOT 0.0000
-3.6595 <s> HOTEL 0.0000
-3.6595 <s> HOUR 0.0000
-3.6595 <s> HOUSE 0.0000
-3.6595 <s> HOUSING 0.0000
-3.6595 <s> HOW 0.0000
-3.6595 <s> HOWEVER 0.0000
-3.6595 <s> HUGE 0.0000
-3.6595 <s> HUMAN 0.0000
-3.6595 <s> HUNGRY 0.0000
-3.6595 <s> HUNT 0.0000
-3.6595 <s> HURRY 0.0000
-3.6595 <s> HURT 0.0000
-3.6595 <s> HUSBAND 0.0000
-3.6595 <s> I 0.0000
-3.6595 <s> ICE 0.0000
-3.6595 <s> IDEA 0.0000
-3.6595 <s> IDEAL 0.0000
-3.6595 <s> IDENTIFY 0.0000
-3.6595 <s> IF 0.0000
-3.6595 <s> IGNORE 0.0000
-3.6595 <s> ILL 0.0000
-3.6595 <s> ILLEGAL 0.0000
-3.6595 <s> ILLUSTRATE 0.0000
-3.6595 <s> IMAGE 0.0000
-3.6595 <s> IMAGINATION 0.0000
-3.6595 <s> IMAGINE 0.0000
-3.6595 <s> IMMEDIATE 0.0000
-3.6595 <s> IMMEDIATELY 0.0000
-3.6595 <s> IMPACT 0.0000
-3.6595 <s> IMPLEMENT 0.0000
-3.6595 <s> IMPLY 0.0000
-3.6595 <s> IMPORTANCE 0.0000
-3.6595 <s> IMPORTANT 0.0000
-3.6595 <s> IMPOSSIBLE 0.0000
-3.6595 <s> IMPRESS 0.0000
-3.6595 <s> IMPRESSION 0.0000
-3.6595 <s> IMPRESSIVE 0.0000
-3.6595 <s> IMPROVE 0.0000
-3.6595 <s> IMPROVEMENT 0.0000
-3.6595 <s> IN 0.0000
-3.6595 <s> INCIDENT 0.0000
-3.6595 <s> INCLUDE 0.0000
-3.6595 <s> INCLUDING 0.0000
-3.6595 <s> INCOME 0.0000
-3.6595 <s> INCORPORATE 0.0000
-3.6595 <s> INCREASE 0.0000
-3.6595 <s> INDEPENDENCE 0.0000
-3.6595 <s> INDEPENDENT 0.0000
-3.6595 <s> INDICATE 0.0000
-3.6595 <s> INDICATION 0.0000
-3.6595 <s> INDIVIDUAL 0.0000
-3.6595 <s> INDUSTRY 0.0000
-3.6595 <s> INEVITABLE 0.0000
-3.6595 <s> INFLATION 0.0000
-3.6595 <s> INFLUENCE 0.0000
-3.6595 <s> INFORM 0.0000
-3.6595 <s> INFORMAL 0.0000
-3.6595 <s> INFORMATION 0.0000
-3.6595 <s> INITIAL 0.0000
-3.6595 <s> INITIALLY 0.0000
-3.6595 <s> INITIATIVE 0.0000
-3.6595 <s> INJURY 0.0000
-3.6595 <s> INNER 0.0000
-3.6595 <s> INSECT 0.0000
-3.6595 <s> INSIDE 0.0000
-3.6595 <s> INSIST 0.0000
-3.6595 <s> INSPECTION 0.0000
-3.6595 <s> INSPECTOR 0.0000
-3.6595 <s> INSTALL 0.0000
-3.6595 <s> INSTANCE 0.0000
-3.6595 <s> INSTEAD 0.0000
-3.6595 <s> INSTRUCTION 0.0000
-3.6595 <s> INSURANCE 0.0000
-3.6595 <s> INTELLIGENT 0.0000
-3.6595 <s> INTEND 0.0000
-3.6595 <s> INTENTION 0.0000
-3.6595 <s> INTERACTION 0.0000
-3.6595 <s> INTEREST 0.0000
-3.6595 <s> INTERESTED 0.0000
-3.6595 <s> INTERESTING 0.0000
-3.6595 <s> INTERNAL 0.0000
-3.6595 <s> INTERNATIONAL 0.0000
-3.6595 <s> INTERNET 0.0000
-3.6595 <s> INTERVIEW 0.0000
-3.6595 <s> INTO 0.0000
-3.6595 <s> INTRODUCE 0.0000
-3.6595 <s> INTRODUCTION 0.0000
-3.6595 <s> INVEST 0.0000
-3.6595 <s> INVESTIGATE 0.0000
-3.6595 <s> INVESTMENT 0.0000
-3.6595 <s> INVITE 0.0000
-3.6595 <s> INVOLVE 0.0000
-3.6595 <s> INVOLVED 0.0000
-3.6595 <s> IRON 0.0000
-3.6595 <s> IS 0.0000
-3.6595 <s> ISLAND 0.0000
-3.6595 <s> ISSUE 0.0000
-3.6595 <s> IT 0.0000
-3.6595 <s> ITEM 0.0000
-3.6595 <s> ITS 0.0000
-3.6595 <s> ITSELF 0.0000
-3.6595 <s> JACKET 0.0000
-3.6595 <s> JOB 0.0000
-3.6595 <s> JOIN 0.0000
-3.6595 <s> JOINT 0.0000
-3.6595 <s> JOKE 0.0000
-3.6595 <s> JUDGE 0.0000
-3.6595 <s> JUDGMENT 0.0000
-3.6595 <s> JUICE 0.0000
-3.6595 <s> JUMP 0.0000
-3.6595 <s> JUNIOR 0.0000
-3.6595 <s> JURY 0.0000
-3.6595 <s> JUST 0.0000
-3.6595 <s> JUSTIFY 0.0000
-3.6595 <s> KEEP 0.0000
-3.6595 <s> KEY 0.0000
-3.6595 <s> KICK 0.0000
-3.6595 <s> KID 0.0000
-3.6595 <s> KILL 0.0000
-3.6595 <s> KIND 0.0000
-3.6595 <s> KING 0.0000
-3.6595 <s> KISS 0.0000
-3.3585 <s> KITCHEN 0.0000
-3.6595 <s> KNEE 0.0000
-3.6595 <s> KNIFE 0.0000
-3.6595 <s> KNOW 0.0000
-3.6595 <s> KNOWLEDGE 0.0000
-3.6595 <s> KNOWN 0.0000
-3.6595 <s> LAB 0.0000
-3.6595 <s> LACK 0.0000
-3.6595 <s> LADDER 0.0000
-3.6595 <s> LADY 0.0000
-3.6595 <s> LAKE 0.0000
-3.6595 <s> LAND 0.0000
-3.6595 <s> LANDSCAPE 0.0000
-3.6595 <s> LANGUAGE 0.0000
-3.6595 <s> LARGE 0.0000
-3.6595 <s> LAST 0.0000
-3.6595 <s> LATE 0.0000
-3.6595 <s> LATER 0.0000
-3.6595 <s> LATTER 0.0000
-3.6595 <s> LAUGH 0.0000
-3.6595 <s> LAW 0.0000
-3.6595 <s> LAWYER 0.0000
-3.6595 <s> LAY 0.0000
-3.6595 <s> LAYER 0.0000
-3.6595 <s> LEAD 0.0000
-3.6595 <s> LEADER 0.0000
-3.6595 <s> LEADERSHIP 0.0000
-3.6595 <s> LEADING 0.0000
-3.6595 <s> LEAGUE 0.0000
-3.6595 <s> LEARN 0.0000
-3.6595 <s> LEAST 0.0000
-3.6595 <s> LEATHER 0.0000
-3.6595 <s> LEAVE 0.0000
-3.6595 <s> LECTURE 0.0000
-3.6595 <s> LEFT 0.0000
-3.6595 <s> LEG 0.0000
-3.6595 <s> LEGAL 0.0000
-3.6595 <s> LENGTH 0.0000
-3.6595 <s> LESS 0.0000
-3.6595 <s> LESSON 0.0000
-3.6595 <s> LET 0.0000
-3.6595 <s> LETTER 0.0000
-3.6595 <s> LEVEL 0.0000
-3.6595 <s> LIBRARY 0.0000
-3.6595 <s> LIE 0.0000
-3.6595 <s> LIFE 0.0000
-3.6595 <s> LIFT 0.0000
-3.6595 <s> LIGHT 0.0000
-3.6595 <s> LIKE 0.0000
-3.6595 <s> LIKELY 0.0000
-3.6595 <s> LIMIT 0.0000
-3.6595 <s> LIMITED 0.0000
-3.6595 <s> LINE 0.0000
-3.6595 <s> LINK 0.0000
-3.6595 <s> LIP 0.0000
-3.6595 <s> LIST 0.0000
-3.6595 <s> LISTEN 0.0000
-3.6595 <s> LITERALLY 0.0000
-3.6595 <s> LITERATURE 0.0000
-3.6595 <s> LITTLE 0.0000
-3.6595 <s> LIVE 0.0000
-3.6595 <s> LIVING 0.0000
-3.6595 <s> LOAD 0.0000
-3.6595 <s> LOAN 0.0000
-3.6595 <s> LOCAL 0.0000
-3.6595 <s> LOCATION 0.0000
-3.6595 <s> LOCK 0.0000
-3.6595 <s> LOG 0.0000
-3.6595 <s> LOGICAL 0.0000
-3.6595 <s> LONELY 0.0000
-3.6595 <s> LONG 0.0000
-3.6595 <s> LOOK 0.0000
-3.6595 <s> LOOSE 0.0000
-3.6595 <s> LOSE 0.0000
-3.6595 <s> LOSS 0.0000
-3.6595 <s> LOST 0.0000
-3.6595 <s> LOT 0.0000
-3.6595 <s> LOUD 0.0000
-3.6595 <s> LOVE 0.0000
-3.6595 <s> LOW 0.0000
-3.6595 <s> LOWER 0.0000
-3.6595 <s> LUCK 0.0000
-3.6595 <s> LUCKY 0.0000
-3.6595 <s> LUNCH 0.0000
-3.6595 <s> MACHINE 0.0000
-3.6595 <s> MAD 0.0000
-3.6595 <s> MAGAZINE 0.0000
-3.6595 <s> MAIL 0.0000
-3.6595 <s> MAIN 0.0000
-3.6595 <s> MAINLY 0.0000
-3.6595 <s> MAINTAIN 0.0000
-3.6595 <s> MAINTENANCE 0.0000
-3.6595 <s> MAJOR 0.0000
-3.6595 <s> MAKE 0.0000
-3.6595 <s> MALE 0.0000
-3.6595 <s> MALL 0.0000
-3.6595 <s> MAN 0.0000
-3.6595 <s> MANAGE 0.0000
-3.6595 <s> MANAGEMENT 0.0000
-3.6595 <s> MANAGER 0.0000
-3.6595 <s> MANNER 0.0000
-3.6595 <s> MANUFACTURER 0.0000
-3.6595 <s> MANUFACTURING 0.0000
-3.6595 <s> MANY 0.0000
-3.6595 <s> MAP 0.0000
-3.6595 <s> MARCH 0.0000
-3.6595 <s> MARK 0.0000
-3.6595 <s> MARKANDEY 0.0000
-3.6595 <s> MARKET 0.0000
-3.6595 <s> MARKETING 0.0000
-3.6595 <s> MARRIAGE 0.0000
-3.6595 <s> MARRIED 0.0000
-3.6595 <s> MARRY 0.0000
-3.6595 <s> MASSIVE 0.0000
-3.6595 <s> MASTER 0.0000
-3.6595 <s> MATCH 0.0000
-3.6595 <s> MATE 0.0000
-3.6595 <s> MATERIAL 0.0000
-3.6595 <s> MATH 0.0000
-3.6595 <s> MATTER 0.0000
-3.6595 <s> MAXIMUM 0.0000
-3.6595 <s> MAY 0.0000
-3.6595 <s> MAYBE 0.0000
-3.6595 <s> ME 0.0000
-3.6595 <s> MEAL 0.0000
-3.6595 <s> MEAN 0.0000
-3.6595 <s> MEANING 0.0000
-3.6595 <s> MEASUREMENT 0.0000
-3.6595 <s> MEAT 0.0000
-3.6595 <s> MEDIA 0.0000
-3.6595 <s> MEDICAL 0.0000
-3.6595 <s> MEDICINE 0.0000
-3.6595 <s> MEDIUM 0.0000
-3.6595 <s> MEET 0.0000
-3.6595 <s> MEETING 0.0000
-3.6595 <s> MEMBER 0.0000
-3.6595 <s> MEMBERSHIP 0.0000
-3.6595 <s> MEMORY 0.0000
-3.6595 <s> MENTAL 0.0000
-3.6595 <s> MENTION 0.0000
-3.6595 <s> MENU 0.0000
-3.6595 <s> MERELY 0.0000
-3.6595 <s> MESS 0.0000
-3.6595 <s> MESSAGE 0.0000
-3.6595 <s> METAL 0.0000
-3.6595 <s> METHOD 0.0000
-3.6595 <s> MIDDLE 0.0000
-3.6595 <s> MIDNIGHT 0.0000
-3.6595 <s> MIGHT 0.0000
-3.6595 <s> MILK 0.0000
-3.6595 <s> MIND 0.0000
-3.6595 <s> MINE 0.0000
-3.6595 <s> MINIMUM 0.0000
-3.6595 <s> MINOR 0.0000
-3.6595 <s> MINUTE 0.0000
-3.6595 <s> MIRROR 0.0000
-3.6595 <s> MISS 0.0000
-3.6595 <s> MISSION 0.0000
-3.6595 <s> MISTAKE 0.0000
-3.6595 <s> MIX 0.0000
-3.6595 <s> MIXED 0.0000
-3.6595 <s> MIXTURE 0.0000
-3.6595 <s> MOBILE 0.0000
-3.6595 <s> MODE 0.0000
-3.6595 <s> MODEL 0.0000
-3.6595 <s> MOM 0.0000
-3.6595 <s> MOMENT 0.0000
-3.6595 <s> MONEY 0.0000
-3.6595 <s> MONITOR 0.0000
-3.6595 <s> MONTH 0.0000
-3.6595 <s> MOOD 0.0000
-3.6595 <s> MORE 0.0000
-3.6595 <s> MOREOVER 0.0000
-3.6595 <s> MORNING 0.0000
-3.6595 <s> MORTGAGE 0.0000
-3.6595 <s> MOST 0.0000
-3.6595 <s> MOSTLY 0.0000
-3.6595 <s> MOTHER 0.0000
-3.6595 <s> MOTOR 0.0000
-3.6595 <s> MOUNTAIN 0.0000
-3.6595 <s> MOUSE 0.0000
-3.6595 <s> MOUTH 0.0000
-3.6595 <s> MOVE 0.0000
-3.6595 <s> MOVIE 0.0000
-3.6595 <s> MUCH 0.0000
-3.6595 <s> MUD 0.0000
-3.6595 <s> MUSCLE 0.0000
-3.6595 <s> MUSIC 0.0000
-3.6595 <s> MUST 0.0000
-3.6595 <s> MY 0.0000
-3.6595 <s> MYSELF 0.0000
-3.6595 <s> NAIL 0.0000
-3.6595 <s> NAME 0.0000
-3.6595 <s> NARROW 0.0000
-3.6595 <s> NASTY 0.0000
-3.6595 <s> NATION 0.0000
-3.6595 <s> NATIONAL 0.0000
-3.6595 <s> NATIVE 0.0000
-3.6595 <s> NATURAL 0.0000
-3.6595 <s> NATURALLY 0.0000
-3.6595 <s> NATURE 0.0000
-3.6595 <s> NEAR 0.0000
-3.6595 <s> NEARBY 0.0000
-3.6595 <s> NEARLY 0.0000
-3.6595 <s> NEAT 0.0000
-3.6595 <s> NECESSARILY 0.0000
-3.6595 <s> NECESSARY 0.0000
-3.6595 <s> NECK 0.0000
-3.6595 <s> NEED 0.0000
-3.6595 <s> NEGATIVE 0.0000
-3.6595 <s> NEGOTIATE 0.0000
-3.6595 <s> NEGOTIATION 0.0000
-3.6595 <s> NEITHER 0.0000
-3.6595 <s> NERVE 0.0000
-3.6595 <s> NERVOUS 0.0000
-3.6595 <s> NET 0.0000
-3.6595 <s> NETWORK 0.0000
-3.6595 <s> NEVER 0.0000
-3.6595 <s> NEW 0.0000
-3.3585 <s> NEWS 0.0000
-3.6595 <s> NEWSPAPER 0.0000
-3.6595 <s> NEXT 0.0000
-3.6595 <s> NICE 0.0000
-3.6595 <s> NIGHT 0.0000
-3.6595 <s> NO 0.0000
-3.6595 <s> NOBODY 0.0000
-3.6595 <s> NOISE 0.0000
-3.6595 <s> NONE 0.0000
-3.6595 <s> NOR 0.0000
-3.6595 <s> NORMAL 0.0000
-3.6595 <s> NORMALLY 0.0000
-3.6595 <s> NORTH 0.0000
-3.6595 <s> NOSE 0.0000
-3.6595 <s> NOT 0.0000
-3.3585 <s> NOTE 0.0000
-3.6595 <s> NOTHING 0.0000
-3.6595 <s> NOTICE 0.0000
-3.6595 <s> NOVEL 0.0000
-3.6595 <s> NOW 0.0000
-3.6595 <s> NOWHERE 0.0000
-3.6595 <s> NUMBER 0.0000
-3.6595 <s> NUMEROUS 0.0000
-3.6595 <s> NURSE 0.0000
-3.6595 <s> OBJECT 0.0000
-3.6595 <s> OBJECTIVE 0.0000
-3.6595 <s> OBLIGATION 0.0000
-3.6595 <s> OBTAIN 0.0000
-3.6595 <s> OBVIOUS 0.0000
-3.6595 <s> OBVIOUSLY 0.0000
-3.6595 <s> OCCASION 0.0000
-3.6595 <s> OCCASIONALLY 0.0000
-3.6595 <s> OCCUR 0.0000
-3.6595 <s> ODD 0.0000
-3.6595 <s> OF 0.0000
-3.6595 <s> OFF 0.0000
-3.6595 <s> OFFER 0.0000
-3.6595 <s> OFFICE 0.0000
-3.6595 <s> OFFICER 0.0000
-3.6595 <s> OFFICIAL 0.0000
-3.6595 <s> OFTEN 0.0000
-3.6595 <s> OIL 0.0000
-3.6595 <s> OK 0.0000
-3.6595 <s> OLD 0.0000
-3.6595 <s> ON 0.0000
-3.6595 <s> ONCE 0.0000
-3.6595 <s> ONE 0.0000
-3.6595 <s> ONLY 0.0000
-3.6595 <s> OPEN 0.0000
-3.6595 <s> OPENING 0.0000
-3.6595 <s> OPERATE 0.0000
-3.6595 <s> OPERATION 0.0000
-3.6595 <s> OPINION 0.0000
-3.6595 <s> OPPORTUNITY 0.0000
-3.6595 <s> OPPOSITE 0.0000
-3.6595 <s> OPTION 0.0000
-3.6595 <s> OR 0.0000
-3.6595 <s> ORANGE 0.0000
-3.6595 <s> ORDER 0.0000
-3.6595 <s> ORDINARY 0.0000
-3.6595 <s> ORGANIZATION 0.0000
-3.6595 <s> ORGANIZE 0.0000
-3.6595 <s> ORGANIZED 0.0000
-3.6595 <s> ORIGINAL 0.0000
-3.6595 <s> ORIGINALLY 0.0000
-3.6595 <s> OTHER 0.0000
-3.6595 <s> OTHERWISE 0.0000
-3.6595 <s> OUGHT 0.0000
-3.6595 <s> OUR 0.0000
-3.6595 <s> OURSELVES 0.0000
-3.6595 <s> OUT 0.0000
-3.6595 <s> OUTCOME 0.0000
-3.6595 <s> OUTSIDE 0.0000
-3.6595 <s> OVEN 0.0000
-3.6595 <s> OVER 0.0000
-3.6595 <s> OVERALL 0.0000
-3.6595 <s> OVERCOME 0.0000
-3.6595 <s> OWE 0.0000
-3.6595 <s> OWN 0.0000
-3.6595 <s> OWNER 0.0000
-3.6595 <s> PACE 0.0000
-3.6595 <s> PACK 0.0000
-3.6595 <s> PACKAGE 0.0000
-3.6595 <s> PAGE 0.0000
-3.6595 <s> PAIN 0.0000
-3.6595 <s> PAINT 0.0000
-3.6595 <s> PAINTING 0.0000
-3.6595 <s> PAIR 0.0000
-3.6595 <s> PANIC 0.0000
-3.6595 <s> PAPER 0.0000
-3.6595 <s> PARENT 0.0000
-3.6595 <s> PARK 0.0000
-3.6595 <s> PARKING 0.0000
-3.6595 <s> PART 0.0000
-3.6595 <s> PARTICIPATE 0.0000
-3.6595 <s> PARTICULAR 0.0000
-3.6595 <s> PARTNER 0.0000
-3.6595 <s> PARTY 0.0000
-3.6595 <s> PASS 0.0000
-3.6595 <s> PASSAGE 0.0000
-3.6595 <s> PASSENGER 0.0000
-3.6595 <s> PASSION 0.0000
-3.6595 <s> PAST 0.0000
-3.6595 <s> PATH 0.0000
-3.6595 <s> PATIENCE 0.0000
-3.6595 <s> PATIENT 0.0000
-3.6595 <s> PATTERN 0.0000
-3.6595 <s> PAUSE 0.0000
-3.6595 <s> PAY 0.0000
-3.6595 <s> PAYMENT 0.0000
-3.6595 <s> PEACE 0.0000
-3.6595 <s> PEAK 0.0000
-3.6595 <s> PEN 0.0000
-3.6595 <s> PENALTY 0.0000
-3.6595 <s> PENSION 0.0000
-3.6595 <s> PEOPLE 0.0000
-3.6595 <s> PERCENTAGE 0.0000
-3.6595 <s> PERCEPTION 0.0000
-3.6595 <s> PERFECT 0.0000
-3.6595 <s> PERFECTLY 0.0000
-3.6595 <s> PERFORM 0.0000
-3.6595 <s> PERFORMANCE 0.0000
-3.6595 <s> PERIOD 0.0000
-3.6595 <s> PERMISSION 0.0000
-3.6595 <s> PERMIT 0.0000
-3.6595 <s> PERSON 0.0000
-3.6595 <s> PERSONAL 0.0000
-3.6595 <s> PERSONALITY 0.0000
-3.6595 <s> PERSONALLY 0.0000
-3.6595 <s> PERSPECTIVE 0.0000
-3.6595 <s> PERSUADE 0.0000
-3.6595 <s> PHASE 0.0000
-3.6595 <s> PHILOSOPHY 0.0000
-3.6595 <s> PHONE 0.0000
-3.6595 <s> PHOTO 0.0000
-3.6595 <s> PHRASE 0.0000
-3.6595 <s> PHYSICAL 0.0000
-3.6595 <s> PHYSICALLY 0.0000
-3.6595 <s> PHYSICS 0.0000
-3.6595 <s> PIANO 0.0000
-3.6595 <s> PICK 0.0000
-3.6595 <s> PICTURE 0.0000
-3.6595 <s> PIE 0.0000
-3.6595 <s> PIECE 0.0000
-3.6595 <s> PIN 0.0000
-3.6595 <s> PIPE 0.0000
-3.6595 <s> PITCH 0.0000
-3.6595 <s> PIZZA 0.0000
-3.6595 <s> PLACE 0.0000
-3.6595 <s> PLAN 0.0000
-3.6595 <s> PLANE 0.0000
-3.6595 <s> PLANT 0.0000
-3.6595 <s> PLASTIC 0.0000
-3.6595 <s> PLATE 0.0000
-3.6595 <s> PLATFORM 0.0000
-3.6595 <s> PLAY 0.0000
-3.6595 <s> PLAYER 0.0000
-3.6595 <s> PLEASANT 0.0000
-3.6595 <s> PLEASE 0.0000
-3.6595 <s> PLEASED 0.0000
-3.6595 <s> PLEASURE 0.0000
-3.6595 <s> PLENTY 0.0000
-3.6595 <s> PLUS 0.0000
-3.6595 <s> POEM 0.0000
-3.6595 <s> POET 0.0000
-3.6595 <s> POETRY 0.0000
-3.6595 <s> POINT 0.0000
-3.6595 <s> POLICE 0.0000
-3.6595 <s> POLICY 0.0000
-3.6595 <s> POLITICAL 0.0000
-3.6595 <s> POLITICS 0.0000
-3.6595 <s> POLLUTION 0.0000
-3.6595 <s> POOL 0.0000
-3.6595 <s> POOR 0.0000
-3.6595 <s> POP 0.0000
-3.6595 <s> POPULAR 0.0000
-3.6595 <s> POPULATION 0.0000
-3.6595 <s> POSITION 0.0000
-3.6595 <s> POSITIVE 0.0000
-3.6595 <s> POSSESS 0.0000
-3.6595 <s> POSSESSION 0.0000
-3.6595 <s> POSSIBILITY 0.0000
-3.6595 <s> POSSIBLE 0.0000
-3.6595 <s> POSSIBLY 0.0000
-3.6595 <s> POST 0.0000
-3.6595 <s> POT 0.0000
-3.6595 <s> POTATO 0.0000
-3.6595 <s> POTENTIAL 0.0000
-3.6595 <s> POUND 0.0000
-3.6595 <s> POUR 0.0000
-3.6595 <s> POWER 0.0000
-3.6595 <s> POWERFUL 0.0000
-3.6595 <s> PRACTICAL 0.0000
-3.6595 <s> PRACTICE 0.0000
-3.6595 <s> PRAY 0.0000
-3.6595 <s> PREFER 0.0000
-3.6595 <s> PREFERENCE 0.0000
-3.6595 <s> PREGNANT 0.0000
-3.6595 <s> PREPARATION 0.0000
-3.6595 <s> PREPARE 0.0000
-3.6595 <s> PRESENCE 0.0000
-3.6595 <s> PRESENT 0.0000
-3.6595 <s> PRESENTATION 0.0000
-3.6595 <s> PRESIDENT 0.0000
-3.6595 <s> PRESS 0.0000
-3.6595 <s> PRESSURE 0.0000
-3.6595 <s> PRETEND 0.0000
-3.6595 <s> PRETTY 0.0000
-3.6595 <s> PREVENT 0.0000
-3.6595 <s> PREVIOUS 0.0000
-3.6595 <s> PREVIOUSLY 0.0000
-3.6595 <s> PRICE 0.0000
-3.6595 <s> PRIDE 0.0000
-3.6595 <s> PRIEST 0.0000
-3.6595 <s> PRIMARILY 0.0000
-3.6595 <s> PRIMARY 0.0000
-3.6595 <s> PRINCIPLE 0.0000
-3.6595 <s> PRINT 0.0000
-3.6595 <s> PRIOR 0.0000
-3.6595 <s> PRIORITY 0.0000
-3.6595 <s> PRITI 0.0000
-3.6595 <s> PRIVATE 0.0000
-3.6595 <s> PRIZE 0.0000
-3.6595 <s> PROBABLY 0.0000
-3.6595 <s> PROBLEM 0.0000
-3.6595 <s> PROCEDURE 0.0000
-3.6595 <s> PROCESS 0.0000
-3.6595 <s> PRODUCE 0.0000
-3.6595 <s> PRODUCT 0.0000
-3.6595 <s> PROFESSION 0.0000
-3.6595 <s> PROFESSIONAL 0.0000
-3.6595 <s> PROFESSOR 0.0000
-3.6595 <s> PROFILE 0.0000
-3.6595 <s> PROFIT 0.0000
-3.6595 <s> PROGRAM 0.0000
-3.6595 <s> PROGRESS 0.0000
-3.6595 <s> PROJECT 0.0000
-3.6595 <s> PROMISE 0.0000
-3.6595 <s> PROMOTION 0.0000
-3.6595 <s> PROMPT 0.0000
-3.6595 <s> PROOF 0.0000
-3.6595 <s> PROPER 0.0000
-3.6595 <s> PROPERLY 0.0000
-3.6595 <s> PROPERTY 0.0000
-3.6595 <s> PROPOSAL 0.0000
-3.6595 <s> PROPOSE 0.0000
-3.6595 <s> PROPOSED 0.0000
-3.6595 <s> PROTECT 0.0000
-3.6595 <s> PROTECTION 0.0000
-3.6595 <s> PROUD 0.0000
-3.6595 <s> PROVE 0.0000
-3.6595 <s> PROVIDE 0.0000
-3.6595 <s> PROVIDED 0.0000
-3.6595 <s> PSYCHOLOGICAL 0.0000
-3.6595 <s> PSYCHOLOGY 0.0000
-3.6595 <s> PUBLIC 0.0000
-3.6595 <s> PULL 0.0000
-3.6595 <s> PUNCH 0.0000
-3.6595 <s> PURCHASE 0.0000
-3.6595 <s> PURE 0.0000
-3.6595 <s> PURPLE 0.0000
-3.6595 <s> PURPOSE 0.0000
-3.6595 <s> PURSUE 0.0000
-3.6595 <s> PUSH 0.0000
-3.6595 <s> PUT 0.0000
-3.6595 <s> QUALIFY 0.0000
-3.6595 <s> QUALITY 0.0000
-3.6595 <s> QUANTITY 0.0000
-3.6595 <s> QUARTER 0.0000
-3.6595 <s> QUEEN 0.0000
-3.6595 <s> QUESTION 0.0000
-3.6595 <s> QUICK 0.0000
-3.6595 <s> QUICKLY 0.0000
-3.6595 <s> QUIET 0.0000
-3.6595 <s> QUIT 0.0000
-3.6595 <s> QUITE 0.0000
-3.6595 <s> QUOTE 0.0000
-3.6595 <s> RACE 0.0000
-3.6595 <s> RADIO 0.0000
-3.6595 <s> RAIN 0.0000
-3.6595 <s> RAISE 0.0000
-3.6595 <s> RANGE 0.0000
-3.6595 <s> RARE 0.0000
-3.6595 <s> RARELY 0.0000
-3.6595 <s> RATE 0.0000
-3.6595 <s> RATHER 0.0000
-3.6595 <s> RATIO 0.0000
-3.6595 <s> RAW 0.0000
-3.6595 <s> REACH 0.0000
-3.6595 <s> REACT 0.0000
-3.6595 <s> REACTION 0.0000
-3.6595 <s> READ 0.0000
-3.6595 <s> READILY 0.0000
-3.6595 <s> READING 0.0000
-3.6595 <s> READY 0.0000
-3.6595 <s> REAL 0.0000
-3.6595 <s> REALISTIC 0.0000
-3.6595 <s> REALITY 0.0000
-3.6595 <s> REALIZE 0.0000
-3.6595 <s> REALLY 0.0000
-3.6595 <s> REASON 0.0000
-3.6595 <s> REASONABLE 0.0000
-3.6595 <s> RECEIVE 0.0000
-3.6595 <s> RECENT 0.0000
-3.6595 <s> RECENTLY 0.0000
-3.6595 <s> RECEPTION 0.0000
-3.6595 <s> RECIPE 0.0000
-3.6595 <s> RECOGNITION 0.0000
-3.6595 <s> RECOGNIZE 0.0000
-3.6595 <s> RECOMMEND 0.0000
-3.6595 <s> RECOMMENDATION 0.0000
-3.6595 <s> RECORD 0.0000
-3.6595 <s> RECORDING 0.0000
-3.6595 <s> RECOVER 0.0000
-3.6595 <s> RED 0.0000
-3.6595 <s> REDUCE 0.0000
-3.6595 <s> REFER 0.0000
-3.6595 <s> REFERENCE 0.0000
-3.6595 <s> REFLECT 0.0000
-3.6595 <s> REFLECTION 0.0000
-3.6595 <s> REFRIGERATOR 0.0000
-3.6595 <s> REFUSE 0.0000
-3.6595 <s> REGION 0.0000
-3.6595 <s> REGISTER 0.0000
-3.6595 <s> REGRET 0.0000
-3.6595 <s> REGULAR 0.0000
-3.6595 <s> REGULARLY 0.0000
-3.6595 <s> RELATE 0.0000
-3.6595 <s> RELATED 0.0000
-3.6595 <s> RELATION 0.0000
-3.6595 <s> RELATIONSHIP 0.0000
-3.6595 <s> RELATIVE 0.0000
-3.6595 <s> RELATIVELY 0.0000
-3.6595 <s> RELAX 0.0000
-3.6595 <s> RELEASE 0.0000
-3.6595 <s> RELEVANT 0.0000
-3.6595 <s> RELIEF 0.0000
-3.6595 <s> RELIEVE 0.0000
-3.6595 <s> RELY 0.0000
-3.6595 <s> REMAIN 0.0000
-3.6595 <s> REMAINING 0.0000
-3.6595 <s> REMARKABLE 0.0000
-3.6595 <s> REMEMBER 0.0000
-3.6595 <s> REMIND 0.0000
-3.6595 <s> REMOTE 0.0000
-3.6595 <s> REMOVE 0.0000
-3.6595 <s> RENT 0.0000
-3.6595 <s> REPAIR 0.0000
-3.6595 <s> REPEAT 0.0000
-3.6595 <s> REPLACE 0.0000
-3.6595 <s> REPLACEMENT 0.0000
-3.6595 <s> REPLY 0.0000
-3.6595 <s> REPORT 0.0000
-3.6595 <s> REPRESENT 0.0000
-3.6595 <s> REPRESENTATIVE 0.0000
-3.6595 <s> REPUBLIC 0.0000
-3.6595 <s> REPUTATION 0.0000
-3.6595 <s> REQUEST 0.0000
-3.6595 <s> REQUIRE 0.0000
-3.6595 <s> REQUIREMENT 0.0000
-3.6595 <s> RESEARCH 0.0000
-3.6595 <s> RESERVE 0.0000
-3.6595 <s> RESIDENT 0.0000
-3.6595 <s> RESIST 0.0000
-3.6595 <s> RESOLUTION 0.0000
-3.6595 <s> RESOLVE 0.0000
-3.6595 <s> RESORT 0.0000
-3.6595 <s> RESOURCE 0.0000
-3.6595 <s> RESPECT 0.0000
-3.6595 <s> RESPOND 0.0000
-3.6595 <s> RESPONSE 0.0000
-3.6595 <s> RESPONSIBILITY 0.0000
-3.6595 <s> RESPONSIBLE 0.0000
-3.6595 <s> REST 0.0000
-3.6595 <s> RESTAURANT 0.0000
-3.6595 <s> RESULT 0.0000
-3.6595 <s> RETAIN 0.0000
-3.6595 <s> RETIRE 0.0000
-3.6595 <s> RETURN 0.0000
-3.6595 <s> REVEAL 0.0000
-3.6595 <s> REVENUE 0.0000
-3.6595 <s> REVIEW 0.0000
-3.6595 <s> REVOLUTION 0.0000
-3.6595 <s> REWARD 0.0000
-3.6595 <s> RICE 0.0000
-3.6595 <s> RICH 0.0000
-3.6595 <s> RID 0.0000
-3.6595 <s> RIDE 0.0000
-3.6595 <s> RIGHT 0.0000
-3.6595 <s> RING 0.0000
-3.6595 <s> RIP 0.0000
-3.6595 <s> RISE 0.0000
-3.6595 <s> RISK 0.0000
-3.6595 <s> RIVER 0.0000
-3.6595 <s> ROAD 0.0000
-3.6595 <s> ROCK 0.0000
-3.6595 <s> ROLE 0.0000
-3.6595 <s> ROLL 0.0000
-3.6595 <s> ROOF 0.0000
-3.6595 <s> ROOM 0.0000
-3.6595 <s> ROPE 0.0000
-3.6595 <s> ROUGH 0.0000
-3.6595 <s> ROUGHLY 0.0000
-3.6595 <s> ROUND 0.0000
-3.6595 <s> ROUTINE 0.0000
-3.6595 <s> ROW 0.0000
-3.6595 <s> ROYAL 0.0000
-3.6595 <s> RUB 0.0000
-3.6595 <s> RUIN 0.0000
-3.6595 <s> RULE 0.0000
-3.6595 <s> RUN 0.0000
-3.6595 <s> RUSH 0.0000
-3.6595 <s> SAD 0.0000
-3.6595 <s> SAFE 0.0000
-3.6595 <s> SAFETY 0.0000
-3.6595 <s> SAIL 0.0000
-3.6595 <s> SALAD 0.0000
-3.6595 <s> SALARY 0.0000
-3.6595 <s> SALE 0.0000
-3.6595 <s> SALT 0.0000
-3.6595 <s> SAME 0.0000
-3.6595 <s> SAMPLE 0.0000
-3.6595 <s> SAND 0.0000
-3.6595 <s> SANDWICH 0.0000
-3.6595 <s> SATISFACTION 0.0000
-3.6595 <s> SAVE 0.0000
-3.6595 <s> SAVINGS 0.0000
-3.6595 <s> SAY 0.0000
-3.6595 <s> SCALE 0.0000
-3.6595 <s> SCARED 0.0000
-3.6595 <s> SCENE 0.0000
-3.6595 <s> SCHEDULE 0.0000
-3.6595 <s> SCHEME 0.0000
-3.6595 <s> SCHOOL 0.0000
-3.6595 <s> SCIENCE 0.0000
-3.6595 <s> SCORE 0.0000
-3.6595 <s> SCRATCH 0.0000
-3.6595 <s> SCREEN 0.0000
-3.6595 <s> SCREW 0.0000
-3.6595 <s> SCRIPT 0.0000
-3.6595 <s> SEA 0.0000
-3.6595 <s> SEARCH 0.0000
-3.6595 <s> SEASON 0.0000
-3.6595 <s> SEAT 0.0000
-3.6595 <s> SECOND 0.0000
-3.6595 <s> SECRET 0.0000
-3.6595 <s> SECRETARY 0.0000
-3.6595 <s> SECTION 0.0000
-3.6595 <s> SECTOR 0.0000
-3.6595 <s> SECURE 0.0000
-3.6595 <s> SECURITY 0.0000
-3.6595 <s> SEE 0.0000
-3.6595 <s> SEEK 0.0000
-3.6595 <s> SEEM 0.0000
-3.6595 <s> SELECT 0.0000
-3.6595 <s> SELECTION 0.0000
-3.6595 <s> SELF 0.0000
-3.6595 <s> SELL 0.0000
-3.6595 <s> SEND 0.0000
-3.6595 <s> SENIOR 0.0000
-3.6595 <s> SENSE 0.0000
-3.6595 <s> SENSITIVE 0.0000
-3.6595 <s> SENTENCE 0.0000
-3.6595 <s> SEPARATE 0.0000
-3.6595 <s> SERIES 0.0000
-3.6595 <s> SERIOUS 0.0000
-3.6595 <s> SERIOUSLY 0.0000
-3.6595 <s> SERVE 0.0000
-3.6595 <s> SERVICE 0.0000
-3.6595 <s> SESSION 0.0000
-3.6595 <s> SET 0.0000
-3.6595 <s> SETTING 0.0000
-3.6595 <s> SETTLE 0.0000
-3.6595 <s> SEVERAL 0.0000
-3.6595 <s> SEVERE 0.0000
-3.6595 <s> SEX 0.0000
-3.6595 <s> SEXUAL 0.0000
